{"learner":{"attributes":{"scikit_learn":"{\"_estimator_type\": \"classifier\"}"},"feature_names":["person_age","person_gender","person_education","person_income","person_emp_exp","person_home_ownership","loan_amnt","loan_intent","loan_int_rate","loan_percent_income","cb_person_cred_hist_length","previous_loan_defaults_on_file","predicted_credit_score"],"feature_types":["float","float","float","float","float","float","float","float","float","float","float","float","float"],"gradient_booster":{"model":{"gbtree_model_param":{"num_parallel_tree":"1","num_trees":"100"},"iteration_indptr":[0,1,2,3,4,5,6,7,8,9,10,11,12,13,14,15,16,17,18,19,20,21,22,23,24,25,26,27,28,29,30,31,32,33,34,35,36,37,38,39,40,41,42,43,44,45,46,47,48,49,50,51,52,53,54,55,56,57,58,59,60,61,62,63,64,65,66,67,68,69,70,71,72,73,74,75,76,77,78,79,80,81,82,83,84,85,86,87,88,89,90,91,92,93,94,95,96,97,98,99,100],"tree_info":[0,0,0,0,0,0,0,0,0,0,0,0,0,0,0,0,0,0,0,0,0,0,0,0,0,0,0,0,0,0,0,0,0,0,0,0,0,0,0,0,0,0,0,0,0,0,0,0,0,0,0,0,0,0,0,0,0,0,0,0,0,0,0,0,0,0,0,0,0,0,0,0,0,0,0,0,0,0,0,0,0,0,0,0,0,0,0,0,0,0,0,0,0,0,0,0,0,0,0,0],"trees":[{"base_weights":[-1.3697936E-1,1.0884796E0,-3.98531E-1,5.123487E-1,3.3436673E0,-1.1107835E-1,2.5596783E0,1.0799537E0,3.974439E0,3.3425694E0,-2.8316906E-1,1.9014436E0,2.94392E0,4.9055752E-1,2.6623373E0,3.410454E0,1.209759E0,1.3007067E0,1.1956131E0,-6.5887874E-1,1.5601078E-1,2.3575568E0,5.910747E-1,1.5770367E0,3.1719208E0,1.1259569E0,8.304675E-3,3.0006618E0,1.3703494E0,3.5097227E0,1.1304445E0,2.6569104E-1,6.2661904E-1,-9.647243E-2,-2.9325384E-1,1.7207256E-1,-9.572666E-2,7.737958E-1,3.150315E-2,3.2189763E-1,-1.00820765E-1,7.3612094E-1,2.0737931E-1,8.207925E-1,1.0231462E0,1.1134348E-1,-3.80093E-1,9.2527866E-1,2.4343708E-1,5.16066E-1,-1.18041314E-1,2.1469371E-1,1.0668926E0,3.4876853E-2,4.8442265E-1],"categories":[],"categories_nodes":[],"categories_segments":[],"categories_sizes":[],"default_left":[0,0,0,0,0,0,0,0,0,0,0,0,0,0,0,0,0,0,0,0,0,0,0,0,0,0,0,0,0,0,0,0,0,0,0,0,0,0,0,0,0,0,0,0,0,0,0,0,0,0,0,0,0,0,0],"id":0,"left_children":[1,3,-1,5,7,9,11,13,15,17,19,21,23,25,27,29,-1,31,-1,33,35,37,39,41,43,-1,45,47,49,51,53,-1,-1,-1,-1,-1,-1,-1,-1,-1,-1,-1,-1,-1,-1,-1,-1,-1,-1,-1,-1,-1,-1,-1,-1],"loss_changes":[9.791281E3,4.2935635E3,0E0,3.3626833E3,9.559834E2,1.201747E3,1.499419E2,1.3666016E2,3.4667969E0,1.2078345E2,3.178046E2,1.3576984E2,1.15444336E2,1.7148465E2,1.33376465E1,8.608276E0,0E0,6.151928E0,0E0,1.11233826E2,1.7645453E2,8.4601074E1,2.7433071E1,4.2753143E1,2.5014893E1,0E0,4.4879276E1,3.1334229E0,6.925007E0,4.3236694E0,1.6754427E0,0E0,0E0,0E0,0E0,0E0,0E0,0E0,0E0,0E0,0E0,0E0,0E0,0E0,0E0,0E0,0E0,0E0,0E0,0E0,0E0,0E0,0E0,0E0,0E0],"parents":[2147483647,0,0,1,1,3,3,4,4,5,5,6,6,7,7,8,8,9,9,10,10,11,11,12,12,13,13,14,14,15,15,17,17,19,19,20,20,21,21,22,22,23,23,24,24,26,26,27,27,28,28,29,29,30,30],"right_children":[2,4,-1,6,8,10,12,14,16,18,20,22,24,26,28,30,-1,32,-1,34,36,38,40,42,44,-1,46,48,50,52,54,-1,-1,-1,-1,-1,-1,-1,-1,-1,-1,-1,-1,-1,-1,-1,-1,-1,-1,-1,-1,-1,-1,-1,-1],"split_conditions":[1E0,2.5E1,-3.98531E-1,8.52E2,3E0,1.285E3,3E0,8.64E2,2.6E1,1.3E1,5.54E2,4E0,8.95E2,1.426E3,4E0,2.4078E4,1.209759E0,1.2E1,1.1956131E0,1.7723E4,1.785E4,2E0,2.6497E4,1.123E4,9.84E2,1.1259569E0,2E0,1.2E1,8E0,7E1,5.67E2,2.6569104E-1,6.2661904E-1,-9.647243E-2,-2.9325384E-1,1.7207256E-1,-9.572666E-2,7.737958E-1,3.150315E-2,3.2189763E-1,-1.00820765E-1,7.3612094E-1,2.0737931E-1,8.207925E-1,1.0231462E0,1.1134348E-1,-3.80093E-1,9.2527866E-1,2.4343708E-1,5.16066E-1,-1.18041314E-1,2.1469371E-1,1.0668926E0,3.4876853E-2,4.8442265E-1],"split_indices":[11,9,0,8,5,3,5,8,9,9,8,7,8,3,7,3,0,9,0,3,3,5,3,3,8,0,5,10,10,8,8,0,0,0,0,0,0,0,0,0,0,0,0,0,0,0,0,0,0,0,0,0,0,0,0],"split_type":[0,0,0,0,0,0,0,0,0,0,0,0,0,0,0,0,0,0,0,0,0,0,0,0,0,0,0,0,0,0,0,0,0,0,0,0,0,0,0,0,0,0,0,0,0,0,0,0,0,0,0,0,0,0,0],"sum_hessian":[6.7039897E3,3.3048809E3,3.3991091E3,2.6333645E3,6.715163E2,2.0193907E3,6.1397375E2,1.4692911E2,5.245872E2,9.497319E1,1.9244176E3,2.2849432E2,3.8547943E2,1.0800873E2,3.8920387E1,5.456303E1,4.7002417E2,2.3463964E1,7.1509224E1,1.0368838E3,8.8753375E2,1.689033E2,5.9591022E1,5.6239025E1,3.292404E2,1.3035536E1,9.497319E1,2.9795511E1,9.124875E0,5.17697E1,2.7933292E0,1.6759975E1,6.70399E0,5.0466147E2,5.322223E2,4.7225885E2,4.1527493E2,1.536331E2,1.5270199E1,3.910661E1,2.0484413E1,2.7374626E1,2.88644E1,1.2085804E2,2.0838235E2,7.448878E1,2.0484413E1,2.8305735E1,1.4897755E0,7.6350994E0,1.4897755E0,1.1173316E0,5.0652367E1,1.3035536E0,1.4897755E0],"tree_param":{"num_deleted":"0","num_feature":"13","num_nodes":"55","size_leaf_vector":"1"}},{"base_weights":[-1.6581227E-1,6.2349504E-1,-3.660877E-1,2.2505336E-1,1.4682852E0,-1.874208E-1,1.1773429E0,5.949749E-1,1.7252924E0,6.032888E-1,-4.6087077E-1,1.437551E0,8.177394E-1,1.3555346E-1,1.4538846E0,1.1407925E0,5.648287E-1,1.5554999E0,3.4794638E-1,-7.6415265E-1,-2.0954947E-1,1.0116091E0,1.6429065E0,1.8076261E0,5.146283E-1,5.6218034E-1,-1.2074477E-1,1.1237713E0,1.9354503E0,7.338417E-1,1.6919371E0,1.1911102E-1,5.476512E-1,1.6464818E-1,-2.3294856E-1,-1.9903442E-1,-3.7561002E-1,8.662782E-3,-1.9931562E-1,6.653316E-1,2.66192E-1,5.326879E-1,3.785301E-1,3.8308948E-1,6.056667E-1,1.2261465E-2,2.5799832E-1,2.8623281E-2,-3.6298853E-1,4.1359916E-1,1.2645079E-1,6.180366E-1,3.268988E-1,5.5091244E-1,1.3372949E-1,5.556671E-1,3.563448E-1],"categories":[],"categories_nodes":[],"categories_segments":[],"categories_sizes":[],"default_left":[0,0,0,0,0,0,0,0,0,0,0,0,0,0,0,0,0,0,0,0,0,0,0,0,0,0,0,0,0,0,0,0,0,0,0,0,0,0,0,0,0,0,0,0,0,0,0,0,0,0,0,0,0,0,0,0,0],"id":1,"left_children":[1,3,-1,5,7,9,11,13,15,17,19,21,23,25,27,29,-1,31,33,35,37,39,41,43,45,-1,47,49,51,53,55,-1,-1,-1,-1,-1,-1,-1,-1,-1,-1,-1,-1,-1,-1,-1,-1,-1,-1,-1,-1,-1,-1,-1,-1,-1,-1],"loss_changes":[5.2588623E3,1.2160381E3,0E0,9.652109E2,2.5887598E2,3.7111423E2,6.831445E1,1.04301544E2,8.015039E1,1.06719604E2,9.701755E1,3.5910095E1,9.331171E1,7.758912E1,1.2479538E1,4.189009E1,0E0,2.8362976E1,7.929262E1,2.753653E1,7.577561E1,1.9371521E1,1.2338928E1,5.632019E0,3.9537697E1,0E0,3.5964916E1,9.635796E0,1.5625E0,3.487776E1,4.3381653E0,0E0,0E0,0E0,0E0,0E0,0E0,0E0,0E0,0E0,0E0,0E0,0E0,0E0,0E0,0E0,0E0,0E0,0E0,0E0,0E0,0E0,0E0,0E0,0E0,0E0,0E0],"parents":[2147483647,0,0,1,1,3,3,4,4,5,5,6,6,7,7,8,8,9,9,10,10,11,11,12,12,13,13,14,14,15,15,17,17,18,18,19,19,20,20,21,21,22,22,23,23,24,24,26,26,27,27,28,28,29,29,30,30],"right_children":[2,4,-1,6,8,10,12,14,16,18,20,22,24,26,28,30,-1,32,34,36,38,40,42,44,46,-1,48,50,52,54,56,-1,-1,-1,-1,-1,-1,-1,-1,-1,-1,-1,-1,-1,-1,-1,-1,-1,-1,-1,-1,-1,-1,-1,-1,-1,-1],"split_conditions":[1E0,2.1E1,-3.660877E-1,8.15E2,3E0,8.991E3,1.785E4,8.15E2,2.5E1,1.285E3,4.91E2,9.27E2,1E0,1.426E3,1.08E3,8.15E2,5.648287E-1,1.2E1,5E0,5E0,4E0,1.285E3,4E0,9.37E2,3E0,5.6218034E-1,2E0,2.1879295E2,2.6497E4,1.285E3,4E0,1.1911102E-1,5.476512E-1,1.6464818E-1,-2.3294856E-1,-1.9903442E-1,-3.7561002E-1,8.662782E-3,-1.9931562E-1,6.653316E-1,2.66192E-1,5.326879E-1,3.785301E-1,3.8308948E-1,6.056667E-1,1.2261465E-2,2.5799832E-1,2.8623281E-2,-3.6298853E-1,4.1359916E-1,1.2645079E-1,6.180366E-1,3.268988E-1,5.5091244E-1,1.3372949E-1,5.556671E-1,3.563448E-1],"split_indices":[11,9,0,8,5,3,3,8,9,3,8,8,7,3,8,8,0,9,7,7,7,3,7,8,7,0,5,12,3,3,7,0,0,0,0,0,0,0,0,0,0,0,0,0,0,0,0,0,0,0,0,0,0,0,0,0,0],"split_type":[0,0,0,0,0,0,0,0,0,0,0,0,0,0,0,0,0,0,0,0,0,0,0,0,0,0,0,0,0,0,0,0,0,0,0,0,0,0,0,0,0,0,0,0,0,0,0,0,0,0,0,0,0,0,0,0,0],"sum_hessian":[6.3164893E3,3.6126958E3,2.7037935E3,2.4557285E3,1.1569674E3,1.7140912E3,7.416373E2,2.6382056E2,8.9314685E2,4.4014856E2,1.2739426E3,4.2854538E2,3.1309195E2,1.7263684E2,9.118372E1,1.9130426E2,7.018426E2,9.1994644E1,3.481539E2,5.7636896E2,6.975736E2,1.413298E2,2.8721558E2,7.2233025E1,2.4085893E2,2.1371298E1,1.5126555E2,5.607671E1,3.5107018E1,1.1138902E2,7.991524E1,1.7855473E1,7.413917E1,2.9581808E2,5.233582E1,4.7971066E2,9.6658325E1,4.5827954E2,2.3929405E2,1.1630645E1,1.2969916E2,2.1031973E2,7.689584E1,2.2574244E1,4.965878E1,1.0202468E2,1.3883426E2,1.2697891E2,2.428663E1,4.0436787E1,1.5639921E1,2.9345638E1,5.7613792E0,2.1961796E1,8.942722E1,5.8606888E1,2.1308348E1],"tree_param":{"num_deleted":"0","num_feature":"13","num_nodes":"57","size_leaf_vector":"1"}},{"base_weights":[-1.5131639E-1,4.5396397E-1,-3.4575737E-1,2.097576E-1,1.276244E0,-1.4481895E-1,8.003252E-1,4.6607232E-1,1.4791583E0,5.7271296E-1,-3.4779316E-1,5.504974E-1,1.1289961E0,1.1575457E0,2.1994333E-1,1.1827316E0,4.5388797E-1,1.2363173E0,3.0792925E-1,-2.3703222E-1,-9.8311794E-1,9.28332E-1,2.7289283E-1,1.2488223E0,7.8567344E-1,1.2786453E0,3.2753374E-2,-3.5609153E-1,5.2805924E-1,1.5227906E0,9.331631E-1,1.06678165E-1,4.5362267E-1,-6.0991798E-2,2.3125325E-1,-1.9927323E-1,-2.0941313E-2,-3.536225E-1,-2.1835123E-1,3.9072555E-1,2.2322263E-1,-2.842039E-2,1.6408294E-1,3.241723E-1,4.7770914E-1,3.6482126E-1,1.4683829E-1,4.246794E-1,8.715909E-2,2.8793827E-1,-2.1157698E-1,3.9442673E-1,-1.8322669E-1,1.0915839E-1,4.129453E-1,1.5452236E-1,4.6700644E-1,2.0194326E-2,3.347063E-1],"categories":[],"categories_nodes":[],"categories_segments":[],"categories_sizes":[],"default_left":[0,0,0,0,0,0,0,0,0,0,0,0,0,0,0,0,0,0,0,0,0,0,0,0,0,0,0,0,0,0,0,0,0,0,0,0,0,0,0,0,0,0,0,0,0,0,0,0,0,0,0,0,0,0,0,0,0,0,0],"id":2,"left_children":[1,3,-1,5,7,9,11,13,15,17,19,21,23,25,27,29,-1,31,33,35,37,39,41,43,45,47,49,51,53,55,57,-1,-1,-1,-1,-1,-1,-1,-1,-1,-1,-1,-1,-1,-1,-1,-1,-1,-1,-1,-1,-1,-1,-1,-1,-1,-1,-1,-1],"loss_changes":[3.3817107E3,6.981277E2,0E0,5.61891E2,1.3020142E2,2.4446115E2,8.203229E1,2.7134758E1,4.5855713E0,6.4667E1,9.18071E1,5.9937103E1,1.6863281E1,5.680603E0,2.147224E1,4.4949646E0,0E0,2.5024292E1,6.309475E1,7.961859E1,8.823074E0,1.5755051E1,3.3522316E1,1.6766113E1,1.4055641E1,4.717781E0,4.172836E0,1.8839378E1,1.0439501E1,1.5198517E-1,6.6866837E0,0E0,0E0,0E0,0E0,0E0,0E0,0E0,0E0,0E0,0E0,0E0,0E0,0E0,0E0,0E0,0E0,0E0,0E0,0E0,0E0,0E0,0E0,0E0,0E0,0E0,0E0,0E0,0E0],"parents":[2147483647,0,0,1,1,3,3,4,4,5,5,6,6,7,7,8,8,9,9,10,10,11,11,12,12,13,13,14,14,15,15,17,17,18,18,19,19,20,20,21,21,22,22,23,23,24,24,25,25,26,26,27,27,28,28,29,29,30,30],"right_children":[2,4,-1,6,8,10,12,14,16,18,20,22,24,26,28,30,-1,32,34,36,38,40,42,44,46,48,50,52,54,56,58,-1,-1,-1,-1,-1,-1,-1,-1,-1,-1,-1,-1,-1,-1,-1,-1,-1,-1,-1,-1,-1,-1,-1,-1,-1,-1,-1,-1],"split_conditions":[1E0,2.5E1,-3.4575737E-1,7.66E2,3E0,6.531E3,9.84E2,1.9679716E2,2.6E1,1.285E3,5E0,2.0578981E2,4E0,5E0,5.24E2,5.721E3,4.5388797E-1,1.3E1,4.01E3,3.02E2,5.54E2,6.685E3,1.1E1,3E0,1.1371E4,2.293E4,6.294E3,1.725E3,1.096E3,1.6969847E2,4.87E2,1.06678165E-1,4.5362267E-1,-6.0991798E-2,2.3125325E-1,-1.9927323E-1,-2.0941313E-2,-3.536225E-1,-2.1835123E-1,3.9072555E-1,2.2322263E-1,-2.842039E-2,1.6408294E-1,3.241723E-1,4.7770914E-1,3.6482126E-1,1.4683829E-1,4.246794E-1,8.715909E-2,2.8793827E-1,-2.1157698E-1,3.9442673E-1,-1.8322669E-1,1.0915839E-1,4.129453E-1,1.5452236E-1,4.6700644E-1,2.0194326E-2,3.347063E-1],"split_indices":[11,9,0,8,5,3,8,12,9,3,7,12,7,7,8,3,0,9,3,8,8,3,9,7,3,3,3,3,8,12,8,0,0,0,0,0,0,0,0,0,0,0,0,0,0,0,0,0,0,0,0,0,0,0,0,0,0,0,0],"split_type":[0,0,0,0,0,0,0,0,0,0,0,0,0,0,0,0,0,0,0,0,0,0,0,0,0,0,0,0,0,0,0,0,0,0,0,0,0,0,0,0,0,0,0,0,0,0,0,0,0,0,0,0,0,0,0,0,0,0,0],"sum_hessian":[5.5784106E3,3.4769604E3,2.10145E3,2.681766E3,7.951943E2,1.676157E3,1.0056092E3,1.599324E2,6.3526184E2,3.691957E2,1.3069613E3,5.7285114E2,4.3275806E2,4.1011612E1,1.189208E2,6.870799E1,5.665539E2,1.042511E2,2.649446E2,1.1141042E3,1.9285707E2,2.4163246E2,3.312187E2,3.1883945E2,1.139186E2,3.6901833E1,4.1097803E0,4.1388206E1,7.753259E1,2.6922304E1,4.1785686E1,2.5404165E1,7.884694E1,1.2616784E2,1.3877676E2,3.1258386E2,8.015204E2,1.071385E2,8.5718575E1,7.7737495E1,1.6389497E2,1.4173764E2,1.8948105E2,2.1680528E2,1.02034164E2,4.5174522E1,6.874408E1,3.202987E1,4.871962E0,1.6884016E0,2.4213786E0,4.923366E0,3.646484E1,6.615777E1,1.1374822E1,1.4031793E0,2.5519125E1,7.513306E0,3.427238E1],"tree_param":{"num_deleted":"0","num_feature":"13","num_nodes":"59","size_leaf_vector":"1"}},{"base_weights":[-1.3463771E-1,3.448698E-1,-3.3229178E-1,1.5140855E-1,1.0701696E0,-5.383144E-2,7.4967456E-1,3.4067556E-1,1.2842908E0,1.8769573E-1,-4.0531158E-1,1.2201915E0,6.264175E-1,1.002485E0,1.1366666E-1,9.6011275E-1,3.9740416E-1,1.0772735E0,9.339215E-2,-6.660043E-1,-1.8439007E-1,1.061284E0,4.3124804E-1,2.5138974E-1,8.48599E-1,1.3630679E0,6.1320037E-1,-1.2464805E-1,8.7892574E-1,1.2033533E0,5.9182584E-1,1.1574338E-1,4.0257397E-1,6.083614E-2,-1.9248796E-1,-9.873785E-2,-2.311552E-1,1.0619549E-1,-9.150167E-2,1.790275E-1,3.4930992E-1,-9.021377E-2,1.7300084E-1,1.3233726E-1,2.8245983E-1,4.484687E-1,3.253774E-2,4.0616187E-1,-2.1909429E-1,3.70274E-2,-1.973749E-1,3.4077507E-1,2.6096515E-2,3.8623026E-1,1.5923461E-1,-1.3086133E-1,2.5438997E-1],"categories":[],"categories_nodes":[],"categories_segments":[],"categories_sizes":[],"default_left":[0,0,0,0,0,0,0,0,0,0,0,0,0,0,0,0,0,0,0,0,0,0,0,0,0,0,0,0,0,0,0,0,0,0,0,0,0,0,0,0,0,0,0,0,0,0,0,0,0,0,0,0,0,0,0,0,0],"id":3,"left_children":[1,3,-1,5,7,9,11,13,15,17,19,21,23,25,27,29,-1,31,33,35,37,39,-1,41,43,45,47,49,51,53,55,-1,-1,-1,-1,-1,-1,-1,-1,-1,-1,-1,-1,-1,-1,-1,-1,-1,-1,-1,-1,-1,-1,-1,-1,-1,-1],"loss_changes":[2.2763916E3,4.5847885E2,0E0,3.1701788E2,1.0704303E2,1.6332672E2,3.7480743E1,2.354844E1,5.6885986E0,9.557503E1,4.5004196E1,3.1649933E0,4.350052E1,4.7927856E0,2.170285E1,4.8892174E0,0E0,1.9468025E1,8.313182E1,1.2387604E1,2.7739227E1,3.2451782E0,0E0,3.5480007E1,1.20442505E1,3.1455421E0,2.1985115E1,1.2140888E1,5.648758E0,1.3914261E0,7.43709E0,0E0,0E0,0E0,0E0,0E0,0E0,0E0,0E0,0E0,0E0,0E0,0E0,0E0,0E0,0E0,0E0,0E0,0E0,0E0,0E0,0E0,0E0,0E0,0E0,0E0,0E0],"parents":[2147483647,0,0,1,1,3,3,4,4,5,5,6,6,7,7,8,8,9,9,10,10,11,11,12,12,13,13,14,14,15,15,17,17,18,18,19,19,20,20,21,21,23,23,24,24,25,25,26,26,27,27,28,28,29,29,30,30],"right_children":[2,4,-1,6,8,10,12,14,16,18,20,22,24,26,28,30,-1,32,34,36,38,40,-1,42,44,46,48,50,52,54,56,-1,-1,-1,-1,-1,-1,-1,-1,-1,-1,-1,-1,-1,-1,-1,-1,-1,-1,-1,-1,-1,-1,-1,-1,-1,-1],"split_conditions":[1E0,2.5E1,-3.3229178E-1,8.95E2,3E0,1.785E4,1E0,5.327E3,2.6E1,1.285E3,5.54E2,1.5E1,3E0,2E0,9.93E2,2.039507E2,3.9740416E-1,1.3E1,5E0,2.0578981E2,1E0,9.37E2,4.3124804E-1,3E0,2E0,4E1,1.426E3,4E0,4E0,5E0,5E0,1.1574338E-1,4.0257397E-1,6.083614E-2,-1.9248796E-1,-9.873785E-2,-2.311552E-1,1.0619549E-1,-9.150167E-2,1.790275E-1,3.4930992E-1,-9.021377E-2,1.7300084E-1,1.3233726E-1,2.8245983E-1,4.484687E-1,3.253774E-2,4.0616187E-1,-2.1909429E-1,3.70274E-2,-1.973749E-1,3.4077507E-1,2.6096515E-2,3.8623026E-1,1.5923461E-1,-1.3086133E-1,2.5438997E-1],"split_indices":[11,9,0,8,5,3,7,3,9,3,8,9,5,5,8,12,0,9,7,12,7,8,0,7,7,9,3,7,7,7,0,0,0,0,0,0,0,0,0,0,0,0,0,0,0,0,0,0,0,0,0,0,0,0,0,0,0],"split_type":[0,0,0,0,0,0,0,0,0,0,0,0,0,0,0,0,0,0,0,0,0,0,0,0,0,0,0,0,0,0,0,0,0,0,0,0,0,0,0,0,0,0,0,0,0,0,0,0,0,0,0,0,0,0,0,0,0],"sum_hessian":[4.877262E3,3.2675955E3,1.609667E3,2.5805E3,6.8709534E2,1.9220391E3,6.58461E2,1.5650078E2,5.305946E2,1.139484E3,7.82555E2,1.3483752E2,5.236235E2,3.9098637E1,1.1740214E2,6.152785E1,4.6906674E2,1.0821878E2,1.0312653E3,3.5804208E2,4.245129E2,8.128199E1,5.3555534E1,1.9559811E2,3.2802536E2,1.8998981E1,2.0099657E1,9.0161446E1,2.7240692E1,3.568905E1,2.58388E1,3.0634216E1,7.758457E1,8.9829364E2,1.3297159E2,8.575997E1,2.7228214E2,7.734475E1,3.4716815E2,1.5994454E1,6.528754E1,7.2543846E1,1.2305427E2,6.198669E1,2.6603867E2,1.7019173E1,1.9798088E0,1.2951728E1,7.1479287E0,6.2060078E1,2.8101366E1,2.0238695E1,7.0019975E0,3.0910599E1,4.7784514E0,5.013588E0,2.0825212E1],"tree_param":{"num_deleted":"0","num_feature":"13","num_nodes":"57","size_leaf_vector":"1"}},{"base_weights":[-1.1750006E-1,2.6652956E-1,-3.230457E-1,1.114304E-1,9.2942697E-1,-1.445706E-1,4.0684277E-1,2.5543892E-1,1.1654463E0,9.826744E-2,-4.3865803E-1,7.9899186E-1,2.846065E-1,3.6433452E-1,1.5218134E-1,7.9597116E-1,3.6505285E-1,1.8816447E-1,-7.030754E-1,-7.306702E-2,-5.619548E-1,1.2928634E0,6.882193E-1,3.5556283E-2,4.5126218E-1,3.003379E-1,-7.842766E-1,1.1894704E0,5.408242E-1,1.0326054E-1,-6.3338175E-2,1.839973E-1,-2.6368508E-1,1.7830792E-1,-5.1281113E-2,-2.4438901E-1,-1.2945579E-1,4.0437713E-1,7.423597E-2,6.1915148E-2,2.3872687E-1,5.6418728E-2,-3.2318982E-1,7.4313104E-2,1.9344504E-1,-8.3436616E-2,1.5747301E-1,-3.303938E-1,2.494157E-1,8.7113634E-2,3.686696E-1,2.7466515E-1,3.399807E-2],"categories":[],"categories_nodes":[],"categories_segments":[],"categories_sizes":[],"default_left":[0,0,0,0,0,0,0,0,0,0,0,0,0,0,0,0,0,0,0,0,0,0,0,0,0,0,0,0,0,0,0,0,0,0,0,0,0,0,0,0,0,0,0,0,0,0,0,0,0,0,0,0,0],"id":4,"left_children":[1,3,-1,5,7,9,11,13,15,17,19,21,23,-1,25,27,-1,29,31,33,35,37,39,41,43,45,47,49,51,-1,-1,-1,-1,-1,-1,-1,-1,-1,-1,-1,-1,-1,-1,-1,-1,-1,-1,-1,-1,-1,-1,-1,-1],"loss_changes":[1.5749946E3,3.1381445E2,0E0,1.8726709E2,9.177191E1,9.480655E1,5.4874878E1,1.4806957E1,7.166321E0,5.254803E1,2.7019081E1,1.4024277E1,3.642215E1,0E0,1.935715E1,4.8993797E0,0E0,4.0882423E1,1.7579788E1,1.0066278E1,1.4438965E1,2.475731E0,1.1484276E1,6.0119225E1,2.055877E1,1.569806E1,1.0700624E1,3.8339615E-1,5.554988E0,0E0,0E0,0E0,0E0,0E0,0E0,0E0,0E0,0E0,0E0,0E0,0E0,0E0,0E0,0E0,0E0,0E0,0E0,0E0,0E0,0E0,0E0,0E0,0E0],"parents":[2147483647,0,0,1,1,3,3,4,4,5,5,6,6,7,7,8,8,9,9,10,10,11,11,12,12,14,14,15,15,17,17,18,18,19,19,20,20,21,21,22,22,23,23,24,24,25,25,26,26,27,27,28,28],"right_children":[2,4,-1,6,8,10,12,14,16,18,20,22,24,-1,26,28,-1,30,32,34,36,38,40,42,44,46,48,50,52,-1,-1,-1,-1,-1,-1,-1,-1,-1,-1,-1,-1,-1,-1,-1,-1,-1,-1,-1,-1,-1,-1,-1,-1],"split_conditions":[1E0,2.5E1,-3.230457E-1,6.8E2,3E0,2.1607834E2,1.9563495E2,1.426E3,2.6E1,5E0,8.991E3,1.7751942E2,3E0,3.6433452E-1,2E0,5.721E3,3.6505285E-1,1.9721E4,1.426E3,1.285E3,3.41E2,2.4E1,8E0,2E0,8.95E2,5.24E2,1.189E3,1.6969847E2,2.039507E2,1.0326054E-1,-6.3338175E-2,1.839973E-1,-2.6368508E-1,1.7830792E-1,-5.1281113E-2,-2.4438901E-1,-1.2945579E-1,4.0437713E-1,7.423597E-2,6.1915148E-2,2.3872687E-1,5.6418728E-2,-3.2318982E-1,7.4313104E-2,1.9344504E-1,-8.3436616E-2,1.5747301E-1,-3.303938E-1,2.494157E-1,8.7113634E-2,3.686696E-1,2.7466515E-1,3.399807E-2],"split_indices":[11,9,0,8,5,12,12,3,9,7,3,12,5,0,5,3,0,3,3,3,8,9,9,5,8,8,8,12,12,0,0,0,0,0,0,0,0,0,0,0,0,0,0,0,0,0,0,0,0,0,0,0,0],"split_type":[0,0,0,0,0,0,0,0,0,0,0,0,0,0,0,0,0,0,0,0,0,0,0,0,0,0,0,0,0,0,0,0,0,0,0,0,0,0,0,0,0,0,0,0,0,0,0,0,0,0,0,0,0],"sum_hessian":[4.2733706E3,3.0522368E3,1.2211335E3,2.4744531E3,5.777837E2,1.3259288E3,1.1485243E3,1.5039388E2,4.2738977E2,7.266089E2,5.9931995E2,2.7161462E2,8.769096E2,1.3572968E1,1.368209E2,5.4205833E1,3.7318396E2,6.540058E2,7.2603134E1,1.5154927E2,4.477707E2,4.7805557E1,2.2380907E2,3.520378E2,5.248718E2,1.18717896E2,1.8103016E1,1.988161E1,3.4324223E1,4.703413E2,1.8366446E2,8.263633E0,6.43395E1,1.8732132E1,1.3281714E2,1.5066402E2,2.971067E2,4.5138783E1,2.666775E0,4.1368847E1,1.8244022E2,3.1033975E2,4.1698067E1,2.5694022E2,2.679316E2,3.31334E1,8.5584496E1,1.5399563E1,2.7034533E0,1.18666E0,1.8694952E1,1.7682678E1,1.6641546E1],"tree_param":{"num_deleted":"0","num_feature":"13","num_nodes":"53","size_leaf_vector":"1"}},{"base_weights":[-1.0232733E-1,2.0259467E-1,-3.165313E-1,7.879376E-2,8.1594837E-1,3.3271196E-1,-1.0088637E-1,1.881447E-1,1.0829214E0,-3.0321974E-1,4.1338402E-1,-1.9492747E-1,3.5435793E-1,7.22028E-1,2.4400556E-2,6.6733295E-1,3.4464845E-1,1.0020682E0,-4.19691E-1,8.969925E-1,3.259226E-1,-1.0829886E-1,-5.6642705E-1,1.0213325E0,2.1377166E-1,8.4557766E-1,-3.5657022E-2,-1.06114134E-1,8.59607E-1,1.0855539E0,4.2851496E-1,6.201414E-2,3.775863E-1,-1.7510091E-1,-4.5445994E-2,2.0504482E-1,3.0381417E-1,1.3081908E-1,6.6116266E-3,-1.135884E-1,1.6576135E-4,-1.9466917E-1,4.1629956E-3,2.1341285E-1,3.8449576E-1,2.481875E-1,1.4810287E-2,2.850252E-1,-4.6825062E-2,-1.681421E-1,3.2110828E-1,2.7525619E-2,-1.7396885E-1,-4.814199E-2,2.85768E-1,7.17869E-2,3.3864486E-1,-8.253148E-2,1.8644518E-1],"categories":[],"categories_nodes":[],"categories_segments":[],"categories_sizes":[],"default_left":[0,0,0,0,0,0,0,0,0,0,0,0,0,0,0,0,0,0,0,0,0,0,0,0,0,0,0,0,0,0,0,0,0,0,0,0,0,0,0,0,0,0,0,0,0,0,0,0,0,0,0,0,0,0,0,0,0,0,0],"id":5,"left_children":[1,3,-1,5,7,9,11,13,15,17,19,21,23,25,27,29,-1,31,33,35,37,39,41,43,45,47,49,51,53,55,57,-1,-1,-1,-1,-1,-1,-1,-1,-1,-1,-1,-1,-1,-1,-1,-1,-1,-1,-1,-1,-1,-1,-1,-1,-1,-1,-1,-1],"loss_changes":[1.1040182E3,2.1855478E2,0E0,1.0937888E2,8.082025E1,5.108825E1,6.018813E1,1.2697376E1,8.517792E0,1.7509853E1,3.7012955E1,3.7414967E1,2.2358461E1,3.2226543E0,1.2337367E1,4.407318E0,0E0,1.6790705E0,4.481289E0,2.6312103E0,2.50419E1,2.7823174E1,1.0535828E1,2.4490013E0,2.0144617E1,3.221983E0,3.9322479E0,9.24498E0,1.6029129E0,3.5519218E-1,4.6114764E0,0E0,0E0,0E0,0E0,0E0,0E0,0E0,0E0,0E0,0E0,0E0,0E0,0E0,0E0,0E0,0E0,0E0,0E0,0E0,0E0,0E0,0E0,0E0,0E0,0E0,0E0,0E0,0E0],"parents":[2147483647,0,0,1,1,3,3,4,4,5,5,6,6,7,7,8,8,9,9,10,10,11,11,12,12,13,13,14,14,15,15,17,17,18,18,19,19,20,20,21,21,22,22,23,23,24,24,25,25,26,26,27,27,28,28,29,29,30,30],"right_children":[2,4,-1,6,8,10,12,14,16,18,20,22,24,26,28,30,-1,32,34,36,38,40,42,44,46,48,50,52,54,56,58,-1,-1,-1,-1,-1,-1,-1,-1,-1,-1,-1,-1,-1,-1,-1,-1,-1,-1,-1,-1,-1,-1,-1,-1,-1,-1,-1,-1],"split_conditions":[1E0,2.5E1,-3.165313E-1,2.0730792E2,3E0,2.43E2,9.37E2,5.327E3,2.6E1,1.426E3,1.8458119E2,2.6497E4,1E0,4E0,1.096E3,5.721E3,3.4464845E-1,1E0,2.02E2,2E0,4E0,4.44E2,4.292E3,2.2011745E2,6.531E3,3.285E3,3.6E1,4E0,8.553E3,1.64E2,4.87E2,6.201414E-2,3.775863E-1,-1.7510091E-1,-4.5445994E-2,2.0504482E-1,3.0381417E-1,1.3081908E-1,6.6116266E-3,-1.135884E-1,1.6576135E-4,-1.9466917E-1,4.1629956E-3,2.1341285E-1,3.8449576E-1,2.481875E-1,1.4810287E-2,2.850252E-1,-4.6825062E-2,-1.681421E-1,3.2110828E-1,2.7525619E-2,-1.7396885E-1,-4.814199E-2,2.85768E-1,7.17869E-2,3.3864486E-1,-8.253148E-2,1.8644518E-1],"split_indices":[11,9,0,12,5,8,8,3,9,3,12,3,7,2,8,3,0,4,8,7,7,8,6,12,3,6,9,7,3,8,8,0,0,0,0,0,0,0,0,0,0,0,0,0,0,0,0,0,0,0,0,0,0,0,0,0,0,0,0],"split_type":[0,0,0,0,0,0,0,0,0,0,0,0,0,0,0,0,0,0,0,0,0,0,0,0,0,0,0,0,0,0,0,0,0,0,0,0,0,0,0,0,0,0,0,0,0,0,0,0,0,0,0,0,0,0,0,0,0,0,0],"sum_hessian":[3.798375E3,2.878077E3,9.202981E2,2.3956594E3,4.8241763E2,9.923916E2,1.4032677E3,1.4444675E2,3.379709E2,1.1140846E2,8.8098315E2,1.1634934E3,2.3977429E2,3.3103664E1,1.1134309E2,4.77841E1,2.9018677E2,8.503752E0,1.0290471E2,1.335082E2,7.47475E2,9.4453284E2,2.1896059E2,4.0651093E1,1.991232E2,2.8362772E1,4.7408924E0,9.705033E1,1.4292756E1,1.6079666E1,3.1704432E1,2.5144112E0,5.9893403E0,6.313073E1,3.9773983E1,4.9354267E1,8.415392E1,5.483086E2,1.9916635E2,2.704357E2,6.7409717E2,1.9161142E2,2.734917E1,2.0260336E1,2.0390759E1,4.1229954E1,1.5789325E2,2.5729797E1,2.6329756E0,3.549751E0,1.1911414E0,6.90283E1,2.8022036E1,1.1329714E0,1.3159784E1,1.0996796E0,1.4979987E1,6.7319994E0,2.4972431E1],"tree_param":{"num_deleted":"0","num_feature":"13","num_nodes":"59","size_leaf_vector":"1"}},{"base_weights":[-8.63798E-2,1.5397903E-1,-3.1184486E-1,5.6361083E-2,7.1649235E-1,8.666697E-1,1.6925657E-2,1.4105585E-1,1.0184892E0,2.1582855E-1,3.7127522E-1,-5.5262927E-2,4.8139763E-1,4.5503297E-1,-7.184325E-2,5.569253E-1,3.3098555E-1,-1.11061655E-1,8.012589E-1,7.021185E-3,-5.26923E-1,6.313895E-1,1.11710615E-1,7.8419626E-1,2.6416418E-1,-4.7689185E-1,9.009282E-2,1.0061928E0,3.3386058E-1,9.770218E-2,-1.5037249E-1,3.1857792E-1,-5.5018295E-2,2.3920102E-2,-8.133164E-2,-3.1993887E-1,-8.15084E-2,1.3429724E-1,3.1247744E-1,1.490836E-1,-1.949426E-2,9.8602064E-2,3.2104313E-1,1.4254433E-1,-1.2770666E-1,-2.7864468E-1,-4.486702E-2,1.8745033E-1,-2.2946125E-2,5.2460317E-2,3.190149E-1,1.8853852E-1,-3.519143E-2],"categories":[],"categories_nodes":[],"categories_segments":[],"categories_sizes":[],"default_left":[0,0,0,0,0,0,0,0,0,0,0,0,0,0,0,0,0,0,0,0,0,0,0,0,0,0,0,0,0,0,0,0,0,0,0,0,0,0,0,0,0,0,0,0,0,0,0,0,0,0,0,0,0],"id":6,"left_children":[1,3,-1,5,7,9,11,13,15,17,-1,19,21,23,25,27,-1,29,31,33,35,37,39,41,43,45,47,49,51,-1,-1,-1,-1,-1,-1,-1,-1,-1,-1,-1,-1,-1,-1,-1,-1,-1,-1,-1,-1,-1,-1,-1,-1],"loss_changes":[7.864794E2,1.5052698E2,0E0,7.4683426E1,7.030554E1,2.5917107E1,7.480249E1,9.4371605E0,9.784821E0,7.8559856E0,0E0,5.6732235E1,1.6569466E1,3.3731031E0,5.5988517E0,3.9990911E0,0E0,4.750902E0,3.9585028E0,3.4538464E1,3.0731148E1,1.5606682E1,6.0105505E0,2.3064947E0,5.6716924E0,3.4633574E0,5.512917E0,4.727707E-1,4.11454E0,0E0,0E0,0E0,0E0,0E0,0E0,0E0,0E0,0E0,0E0,0E0,0E0,0E0,0E0,0E0,0E0,0E0,0E0,0E0,0E0,0E0,0E0,0E0,0E0],"parents":[2147483647,0,0,1,1,3,3,4,4,5,5,6,6,7,7,8,8,9,9,11,11,12,12,13,13,14,14,15,15,17,17,18,18,19,19,20,20,21,21,22,22,23,23,24,24,25,25,26,26,27,27,28,28],"right_children":[2,4,-1,6,8,10,12,14,16,18,-1,20,22,24,26,28,-1,30,32,34,36,38,40,42,44,46,48,50,52,-1,-1,-1,-1,-1,-1,-1,-1,-1,-1,-1,-1,-1,-1,-1,-1,-1,-1,-1,-1,-1,-1,-1,-1],"split_conditions":[1E0,2.5E1,-3.1184486E-1,1.285E3,3E0,1.3E1,9.93E2,2.0620557E2,2.6E1,7.4E2,3.7127522E-1,5E0,4E0,3.351E3,4.9E2,5.721E3,3.3098555E-1,1E0,1.3E1,2.4385E4,5.54E2,3E0,1.1371E4,4E0,4E0,2E0,6.531E3,1.7154678E2,2.0730792E2,9.770218E-2,-1.5037249E-1,3.1857792E-1,-5.5018295E-2,2.3920102E-2,-8.133164E-2,-3.1993887E-1,-8.15084E-2,1.3429724E-1,3.1247744E-1,1.490836E-1,-1.949426E-2,9.8602064E-2,3.2104313E-1,1.4254433E-1,-1.2770666E-1,-2.7864468E-1,-4.486702E-2,1.8745033E-1,-2.2946125E-2,5.2460317E-2,3.190149E-1,1.8853852E-1,-3.519143E-2],"split_indices":[11,9,0,3,5,9,8,12,9,8,0,7,7,6,8,3,0,1,0,3,8,7,3,0,7,7,3,12,12,0,0,0,0,0,0,0,0,0,0,0,0,0,0,0,0,0,0,0,0,0,0,0,0],"split_type":[0,0,0,0,0,0,0,0,0,0,0,0,0,0,0,0,0,0,0,0,0,0,0,0,0,0,0,0,0,0,0,0,0,0,0,0,0,0,0,0,0,0,0,0,0,0,0,0,0,0,0,0,0],"sum_hessian":[3.431409E3,2.7410054E3,6.904036E2,2.3366123E3,4.0439294E2,1.0746538E2,2.229147E3,1.3968976E2,2.647032E2,3.958597E1,6.787941E1,1.9300571E3,2.990899E2,5.5985996E1,8.3703766E1,4.2256878E1,2.2244632E2,2.5922028E1,1.3663944E1,1.7057878E3,2.2426923E2,2.1226176E2,8.682815E1,1.9407747E1,3.6578247E1,2.3351078E1,6.0352684E1,1.2855089E1,2.9401789E1,1.2309312E1,1.3612716E1,1.0741791E1,2.9221537E0,1.3528236E3,3.529643E2,7.1000114E1,1.5326912E2,1.4804346E2,6.42183E1,2.6732231E1,6.0095917E1,8.313506E0,1.1094241E1,2.8249651E1,8.328596E0,9.036981E0,1.4314096E1,1.3681727E1,4.6670956E1,1.0886058E0,1.1766483E1,1.7549423E1,1.18523655E1],"tree_param":{"num_deleted":"0","num_feature":"13","num_nodes":"53","size_leaf_vector":"1"}},{"base_weights":[-7.115615E-2,1.17906205E-1,-3.0840486E-1,1.1197963E-2,4.8188934E-1,-3.960479E-1,6.841425E-2,1.06653325E-1,7.1169347E-1,-3.3236298E-1,-9.741687E-1,2.8234738E-1,-4.4954892E-2,3.401622E-1,4.0973023E-2,4.0096256E-1,3.2142034E-1,-2.5141674E-1,-8.3078045E-1,-2.5582733E-2,-3.041138E-1,5.1192075E-1,1.08031504E-1,2.73563E-1,-1.1086397E-1,1.6753896E-1,-9.6197957E-1,6.04375E-1,1.5826267E-1,3.3108715E-2,-1.02857254E-1,-7.043666E-2,-2.63021E-1,1.3686046E-1,4.5441827E-1,1.2134156E-2,2.1163654E-1,3.735994E-2,2.3073034E-1,-8.7854505E-2,7.7577075E-3,3.264793E-3,1.7121077E-1,-3.3770117E-1,1.6522858E-1,-1.24775544E-1,2.003041E-1,1.4771222E-1,4.3891333E-3],"categories":[],"categories_nodes":[],"categories_segments":[],"categories_sizes":[],"default_left":[0,0,0,0,0,0,0,0,0,0,0,0,0,0,0,0,0,0,0,0,0,0,0,0,0,0,0,0,0,0,0,0,0,0,0,0,0,0,0,0,0,0,0,0,0,0,0,0,0],"id":7,"left_children":[1,3,-1,5,7,9,11,13,15,17,19,21,23,-1,25,27,-1,29,31,-1,-1,33,35,37,39,41,43,45,47,-1,-1,-1,-1,-1,-1,-1,-1,-1,-1,-1,-1,-1,-1,-1,-1,-1,-1,-1,-1],"loss_changes":[5.6719464E2,1.0169136E2,0E0,4.7229996E1,5.1108124E1,8.86956E0,4.3112972E1,1.52434435E1,4.069661E1,8.926868E0,7.662754E-1,2.4582867E1,2.4433016E1,0E0,2.7331581E1,9.729151E0,0E0,6.529628E0,6.487961E-1,0E0,0E0,1.4141312E1,1.4152489E1,1.4643231E1,2.3989002E1,1.2051281E1,6.595688E0,7.2478485E0,4.4124575E0,0E0,0E0,0E0,0E0,0E0,0E0,0E0,0E0,0E0,0E0,0E0,0E0,0E0,0E0,0E0,0E0,0E0,0E0,0E0,0E0],"parents":[2147483647,0,0,1,1,3,3,4,4,5,5,6,6,7,7,8,8,9,9,10,10,11,11,12,12,14,14,15,15,17,17,18,18,21,21,22,22,23,23,24,24,25,25,26,26,27,27,28,28],"right_children":[2,4,-1,6,8,10,12,14,16,18,20,22,24,-1,26,28,-1,30,32,-1,-1,34,36,38,40,42,44,46,48,-1,-1,-1,-1,-1,-1,-1,-1,-1,-1,-1,-1,-1,-1,-1,-1,-1,-1,-1,-1],"split_conditions":[1E0,2.1E1,-3.0840486E-1,2.43E2,3E0,5E0,2.0374216E2,1.426E3,2.6E1,2.6329E4,8.37E2,1.123E4,1E0,3.401622E-1,2E0,2.0708311E2,3.2142034E-1,6.86E2,3E0,-2.5582733E-2,-3.041138E-1,1.0825E4,1.1E1,8.95E2,3E0,8.95E2,1.189E3,2E0,2.617E3,3.3108715E-2,-1.02857254E-1,-7.043666E-2,-2.63021E-1,1.3686046E-1,4.5441827E-1,1.2134156E-2,2.1163654E-1,3.735994E-2,2.3073034E-1,-8.7854505E-2,7.7577075E-3,3.264793E-3,1.7121077E-1,-3.3770117E-1,1.6522858E-1,-1.24775544E-1,2.003041E-1,1.4771222E-1,4.3891333E-3],"split_indices":[11,9,0,8,5,7,12,3,9,3,3,3,7,0,5,12,0,6,9,0,0,3,0,8,5,8,8,0,6,0,0,0,0,0,0,0,0,0,0,0,0,0,0,0,0,0,0,0,0],"split_type":[0,0,0,0,0,0,0,0,0,0,0,0,0,0,0,0,0,0,0,0,0,0,0,0,0,0,0,0,0,0,0,0,0,0,0,0,0,0,0,0,0,0,0,0,0,0,0,0,0],"sum_hessian":[3.1336265E3,2.6173508E3,5.162757E2,2.0247804E3,5.925703E2,2.4869969E2,1.7760808E3,2.2562396E2,3.6694632E2,2.2544041E2,2.3259268E1,6.1467267E2,1.1614081E3,1.2581979E1,2.1304198E2,1.9801079E2,1.6893555E2,1.9523708E2,3.0203335E1,1.1250998E0,2.2134169E1,2.644527E2,3.5021997E2,1.9858044E2,9.6282764E2,1.899096E2,2.3132374E1,1.069137E2,9.1097084E1,3.9348896E1,1.5588818E2,2.5995471E0,2.7603788E1,2.5191064E2,1.254206E1,3.1558655E2,3.4633427E1,1.5362886E2,4.4951576E1,4.1255573E2,5.502719E2,1.3750616E2,5.240345E1,2.110456E1,2.027813E0,5.920633E0,1.00993065E2,2.6658098E1,6.443899E1],"tree_param":{"num_deleted":"0","num_feature":"13","num_nodes":"49","size_leaf_vector":"1"}},{"base_weights":[-5.8799203E-2,8.822306E-2,-3.0581927E-1,3.3949915E-2,5.9882367E-1,7.228572E-1,5.1335576E-3,9.1137744E-2,3.144458E-1,1.1786615E-1,3.438684E-1,-1.9882905E-1,9.677793E-2,1.9027486E-1,-5.02365E-1,6.955921E-1,-1.3367902E-1,-1.3053915E-1,-1.0115125E0,1.8970397E-1,-1.3101378E-1,2.7835658E-1,-5.6268495E-1,2.8225246E-1,-8.080845E-1,5.3255226E-2,3.7644202E-1,2.475393E-1,-1.1505147E-1,6.6863015E-2,-5.5557113E-2,-3.1658602E-1,-2.0601474E-1,-3.2656917E-3,1.23388305E-1,-1.1369105E-1,1.0690074E-2,3.352247E-2,3.1288227E-1,-2.7328563E-1,5.4226834E-2,-1.7181452E-1,3.0363336E-1,-3.8127445E-2,-2.756585E-1],"categories":[],"categories_nodes":[],"categories_segments":[],"categories_sizes":[],"default_left":[0,0,0,0,0,0,0,0,0,0,0,0,0,0,0,0,0,0,0,0,0,0,0,0,0,0,0,0,0,0,0,0,0,0,0,0,0,0,0,0,0,0,0,0,0],"id":8,"left_children":[1,3,-1,5,7,9,11,13,-1,15,-1,17,19,21,23,25,27,29,31,33,35,37,39,41,43,-1,-1,-1,-1,-1,-1,-1,-1,-1,-1,-1,-1,-1,-1,-1,-1,-1,-1,-1,-1],"loss_changes":[4.1091214E2,6.9916275E1,0E0,4.530375E1,5.5204277E1,2.333353E1,4.0985794E1,6.856852E0,0E0,5.7368608E0,0E0,3.759487E1,3.204899E1,6.735159E0,4.2392693E0,3.2369008E0,6.998256E0,1.2175509E1,2.2403717E-2,4.778394E1,1.8150934E1,1.1281363E1,2.9400208E0,3.9679072E0,8.105297E-1,0E0,0E0,0E0,0E0,0E0,0E0,0E0,0E0,0E0,0E0,0E0,0E0,0E0,0E0,0E0,0E0,0E0,0E0,0E0,0E0],"parents":[2147483647,0,0,1,1,3,3,4,4,5,5,6,6,7,7,9,9,11,11,12,12,13,13,14,14,15,15,16,16,17,17,18,18,19,19,20,20,21,21,22,22,23,23,24,24],"right_children":[2,4,-1,6,8,10,12,14,-1,16,-1,18,20,22,24,26,28,30,32,34,36,38,40,42,44,-1,-1,-1,-1,-1,-1,-1,-1,-1,-1,-1,-1,-1,-1,-1,-1,-1,-1,-1,-1],"split_conditions":[1E0,2.6E1,-3.0581927E-1,1.285E3,3E0,1.3E1,5.54E2,5E0,3.144458E-1,8E0,3.438684E-1,5E0,4E0,2.293E4,4E0,8E0,1.74E2,1.9439528E2,5.18E2,2E0,3E0,4.353E3,9.93E2,7.23E2,5.176E3,5.3255226E-2,3.7644202E-1,2.475393E-1,-1.1505147E-1,6.6863015E-2,-5.5557113E-2,-3.1658602E-1,-2.0601474E-1,-3.2656917E-3,1.23388305E-1,-1.1369105E-1,1.0690074E-2,3.352247E-2,3.1288227E-1,-2.7328563E-1,5.4226834E-2,-1.7181452E-1,3.0363336E-1,-3.8127445E-2,-2.756585E-1],"split_indices":[11,9,0,3,5,9,8,7,0,9,0,7,7,3,0,4,3,12,8,7,5,6,8,8,3,0,0,0,0,0,0,0,0,0,0,0,0,0,0,0,0,0,0,0,0],"split_type":[0,0,0,0,0,0,0,0,0,0,0,0,0,0,0,0,0,0,0,0,0,0,0,0,0,0,0,0,0,0,0,0,0,0,0,0,0,0,0,0,0,0,0,0,0],"sum_hessian":[2.9079014E3,2.5227026E3,3.8519858E2,2.2812852E3,2.414176E2,9.062582E1,2.1906592E3,1.1391294E2,1.2750466E2,3.783645E1,5.2789364E1,6.787878E2,1.5118715E3,9.819081E1,1.5722129E1,1.0941571E1,2.6894878E1,6.272413E2,5.1546535E1,1.0739346E3,4.3793692E2,8.847166E1,9.719153E0,4.429849E0,1.129228E1,6.3635817E0,4.5779896E0,5.0831947E0,2.1811684E1,8.359231E1,5.436489E2,4.3442554E1,8.103984E0,5.6417706E2,5.097575E2,1.7551389E2,2.6242303E2,7.358292E1,1.4888736E1,6.4651957E0,3.2539582E0,2.13923E0,2.2906191E0,1.8803368E0,9.411943E0],"tree_param":{"num_deleted":"0","num_feature":"13","num_nodes":"45","size_leaf_vector":"1"}},{"base_weights":[-4.7913115E-2,6.5743975E-2,-3.03812E-1,-2.7334504E-2,2.810542E-1,7.977063E-2,-1.7586161E-1,3.240507E-1,2.3990527E-1,4.137938E-2,1.4427191E0,-9.0402204E-1,-1.23211294E-1,5.0672486E-2,3.779808E-1,-9.4601875E-3,5.3391534E-1,1.78512E0,1.3983382E-1,-1.0824578E0,-2.2221923E-1,2.2678253E-1,-2.087587E-1,1.7729497E-1,-9.7154003E-1,1.9571891E-1,3.088237E-1,-6.448099E-2,2.3955338E-2,2.308925E-1,4.8941143E-2,7.110826E-1,3.72814E-1,-2.547505E-1,2.847212E-1,-3.6093634E-1,-1.9845448E-1,2.4941905E-1,-1.23864256E-1,-1.4968106E-1,1.1726078E-1,1.9289789E-1,-7.115056E-2,3.3894017E-2,2.1787792E-1,-3.4357336E-1,1.5440698E-2,1.235545E-1,2.6073428E-3],"categories":[],"categories_nodes":[],"categories_segments":[],"categories_sizes":[],"default_left":[0,0,0,0,0,0,0,0,0,0,0,0,0,0,0,0,0,0,0,0,0,0,0,0,0,0,0,0,0,0,0,0,0,0,0,0,0,0,0,0,0,0,0,0,0,0,0,0,0],"id":9,"left_children":[1,3,-1,5,7,9,11,-1,13,15,17,19,21,23,25,27,29,31,33,35,37,39,41,43,45,47,-1,-1,-1,-1,-1,-1,-1,-1,-1,-1,-1,-1,-1,-1,-1,-1,-1,-1,-1,-1,-1,-1,-1],"loss_changes":[2.99619E2,4.9003242E1,0E0,2.7181976E1,2.4007717E1,5.1897243E1,2.7332964E1,0E0,1.8352451E1,2.4213696E1,1.1872826E1,5.612728E0,2.0070194E1,3.8714172E1,4.8045788E1,1.611708E1,7.781927E0,3.857277E0,6.200288E0,1.1278496E0,2.6008239E0,1.5893595E1,1.316893E1,9.302315E0,5.9184647E0,1.288117E1,0E0,0E0,0E0,0E0,0E0,0E0,0E0,0E0,0E0,0E0,0E0,0E0,0E0,0E0,0E0,0E0,0E0,0E0,0E0,0E0,0E0,0E0,0E0],"parents":[2147483647,0,0,1,1,3,3,4,4,5,5,6,6,8,8,9,9,10,10,11,11,12,12,13,13,14,14,15,15,16,16,17,17,18,18,19,19,20,20,21,21,22,22,23,23,24,24,25,25],"right_children":[2,4,-1,6,8,10,12,-1,14,16,18,20,22,24,26,28,30,32,34,36,38,40,42,44,46,48,-1,-1,-1,-1,-1,-1,-1,-1,-1,-1,-1,-1,-1,-1,-1,-1,-1,-1,-1,-1,-1,-1,-1],"split_conditions":[1E0,1.8E1,-3.03812E-1,1.785E4,1.285E3,1.7454E4,1.8579E4,3.240507E-1,3E0,9.93E2,1.7723E4,8E0,1E0,2E0,2.6E1,3E0,1.422E3,1.338E3,5.53E2,2.2175467E2,6.86E2,4.53E2,1.8458119E2,1.08E3,1.083E3,3E0,3.088237E-1,-6.448099E-2,2.3955338E-2,2.308925E-1,4.8941143E-2,7.110826E-1,3.72814E-1,-2.547505E-1,2.847212E-1,-3.6093634E-1,-1.9845448E-1,2.4941905E-1,-1.23864256E-1,-1.4968106E-1,1.1726078E-1,1.9289789E-1,-7.115056E-2,3.3894017E-2,2.1787792E-1,-3.4357336E-1,1.5440698E-2,1.235545E-1,2.6073428E-3],"split_indices":[11,9,0,3,3,3,3,0,5,8,3,10,7,5,9,5,6,6,8,12,6,8,12,8,8,7,0,0,0,0,0,0,0,0,0,0,0,0,0,0,0,0,0,0,0,0,0,0,0],"split_type":[0,0,0,0,0,0,0,0,0,0,0,0,0,0,0,0,0,0,0,0,0,0,0,0,0,0,0,0,0,0,0,0,0,0,0,0,0,0,0,0,0,0,0,0,0,0,0,0,0],"sum_hessian":[2.7307559E3,2.443797E3,2.8695862E2,1.7068151E3,7.369821E2,9.919604E2,7.148547E2,3.4854538E1,7.0212756E2,9.657867E2,2.6173717E1,4.7112507E1,6.677422E2,2.9677026E2,4.053573E2,8.763143E2,8.947238E1,2.0433598E1,5.740121E0,3.6874405E1,1.0238101E1,1.3083119E2,5.36911E2,2.6479626E2,3.1974018E1,3.177543E2,8.760298E1,2.650692E2,6.1124506E2,5.404007E1,3.5432312E1,8.208376E0,1.2225222E1,2.560942E0,3.1791787E0,2.7215046E1,9.65936E0,1.0538464E0,9.184255E0,2.37499E1,1.0708129E2,1.6632141E1,5.202789E2,2.3810631E2,2.668995E1,2.7230806E1,4.7432117E0,1.4685107E2,1.7090323E2],"tree_param":{"num_deleted":"0","num_feature":"13","num_nodes":"49","size_leaf_vector":"1"}},{"base_weights":[-3.8394254E-2,4.9132884E-2,-3.0217963E-1,1.3819306E-1,-1.1461324E-1,-2.1321863E-2,2.4033006E-1,1.3912378E-1,-1.8005815E-1,2.9779577E-1,-3.3206275E-1,6.1948913E-1,1.404019E-1,5.211052E-2,1.4091444E0,-9.375355E-2,-3.8551748E-1,1.4224239E-1,5.5449903E-1,-6.471273E-1,-1.0605944E-1,1.8492521E0,3.3808047E-1,3.662231E-2,4.1582876E-1,3.1541085E-1,-1.5645489E-1,1.7728596E0,4.8519188E-1,-1.6701224E-1,2.134593E-1,-7.588706E-1,-3.2431617E-1,2.96042E-1,2.8518287E-2,1.0686339E-1,2.5127673E-1,-2.0671082E-1,1.6232617E-1,2.559691E-1,-4.308544E-2,7.171179E-1,4.2519352E-1,3.4345487E-1,9.162647E-3,-7.895632E-3,1.5484172E-1,2.4634618E-1,3.9414827E-2,2.3657193E-2,3.4115928E-1,1.6000235E-1,-8.8090606E-2,1.17778905E-1,6.1678916E-1,-1.7848113E-1,2.9733285E-1,-8.231089E-2,5.683597E-4,2.991766E-3,2.8822497E-1,-2.4399985E-1,-2.161752E-3,3.0540561E-2,-1.1304774E-1],"categories":[],"categories_nodes":[],"categories_segments":[],"categories_sizes":[],"default_left":[0,0,0,0,0,0,0,0,0,0,0,0,0,0,0,0,0,0,0,0,0,0,0,0,0,0,0,0,0,0,0,0,0,0,0,0,0,0,0,0,0,0,0,0,0,0,0,0,0,0,0,0,0,0,0,0,0,0,0,0,0,0,0,0,0],"id":10,"left_children":[1,3,-1,5,7,9,11,13,15,17,19,21,23,25,27,29,31,33,35,37,39,41,43,45,47,49,51,53,55,57,59,61,63,-1,-1,-1,-1,-1,-1,-1,-1,-1,-1,-1,-1,-1,-1,-1,-1,-1,-1,-1,-1,-1,-1,-1,-1,-1,-1,-1,-1,-1,-1,-1,-1],"loss_changes":[2.1960648E2,3.4658062E1,0E0,2.5080452E1,1.3930666E1,5.9765873E1,3.546688E1,1.8963142E1,1.1775761E1,1.1795801E1,2.167239E1,6.700783E1,2.1249413E1,8.959695E0,2.8388348E0,1.0622692E1,4.248932E0,7.3384657E0,5.9808655E0,6.7138596E0,6.571438E0,5.0664062E0,3.9728546E1,1.6354965E1,2.335456E1,1.3916403E1,8.787216E0,2.1318321E0,3.040987E0,6.898363E0,1.3830491E1,1.0977869E0,3.85923E0,0E0,0E0,0E0,0E0,0E0,0E0,0E0,0E0,0E0,0E0,0E0,0E0,0E0,0E0,0E0,0E0,0E0,0E0,0E0,0E0,0E0,0E0,0E0,0E0,0E0,0E0,0E0,0E0,0E0,0E0,0E0,0E0],"parents":[2147483647,0,0,1,1,3,3,4,4,5,5,6,6,7,7,8,8,9,9,10,10,11,11,12,12,13,13,14,14,15,15,16,16,17,17,18,18,19,19,20,20,21,21,22,22,23,23,24,24,25,25,26,26,27,27,28,28,29,29,30,30,31,31,32,32],"right_children":[2,4,-1,6,8,10,12,14,16,18,20,22,24,26,28,30,32,34,36,38,40,42,44,46,48,50,52,54,56,58,60,62,64,-1,-1,-1,-1,-1,-1,-1,-1,-1,-1,-1,-1,-1,-1,-1,-1,-1,-1,-1,-1,-1,-1,-1,-1,-1,-1,-1,-1,-1,-1,-1,-1],"split_conditions":[1E0,2.1717622E2,-3.0217963E-1,2E0,6.531E3,1E0,3E0,6.294E3,4E0,1.6E1,4E0,4E0,8.88E2,3E0,7E0,3.632E3,3.47E2,1.785238E2,7.52E2,3E1,1.285E3,6.11E2,9.267E3,2.5E1,4E0,2E0,1.285E3,1E0,7E0,6.8E2,3E0,2.5472957E2,8.991E3,2.96042E-1,2.8518287E-2,1.0686339E-1,2.5127673E-1,-2.0671082E-1,1.6232617E-1,2.559691E-1,-4.308544E-2,7.171179E-1,4.2519352E-1,3.4345487E-1,9.162647E-3,-7.895632E-3,1.5484172E-1,2.4634618E-1,3.9414827E-2,2.3657193E-2,3.4115928E-1,1.6000235E-1,-8.8090606E-2,1.17778905E-1,6.1678916E-1,-1.7848113E-1,2.9733285E-1,-8.231089E-2,5.683597E-4,2.991766E-3,2.8822497E-1,-2.4399985E-1,-2.161752E-3,3.0540561E-2,-1.1304774E-1],"split_indices":[11,12,0,7,3,7,7,3,7,9,0,0,8,7,10,6,8,12,8,9,3,8,3,9,7,7,3,7,4,8,7,12,3,0,0,0,0,0,0,0,0,0,0,0,0,0,0,0,0,0,0,0,0,0,0,0,0,0,0,0,0,0,0,0,0],"split_type":[0,0,0,0,0,0,0,0,0,0,0,0,0,0,0,0,0,0,0,0,0,0,0,0,0,0,0,0,0,0,0,0,0,0,0,0,0,0,0,0,0,0,0,0,0,0,0,0,0,0,0,0,0,0,0,0,0,0,0,0,0,0,0,0,0],"sum_hessian":[2.5880383E3,2.374479E3,2.1355945E2,1.5380839E3,8.363951E2,6.007068E2,9.37377E2,1.7126321E2,6.6513184E2,2.9637943E2,3.0432736E2,1.9443388E2,7.429431E2,1.6125607E2,1.0007149E1,4.694095E2,1.9572238E2,1.8551674E2,1.1086268E2,1.2633881E2,1.7798854E2,3.5169758E1,1.5926413E2,5.4044055E2,2.0250258E2,7.104901E1,9.020706E1,6.5212655E0,3.4858835E0,3.7939453E2,9.0014946E1,2.5959452E1,1.6976292E2,8.761827E0,1.7675491E2,6.6524506E1,4.433817E1,1.2244041E2,3.8984044E0,5.887902E0,1.7210065E2,1.3598852E1,2.1570906E1,4.3203976E1,1.1606015E2,4.78569E2,6.1871563E1,8.272939E1,1.1977319E2,5.601958E1,1.5029429E1,1.44846735E1,7.572239E1,1.5161403E0,5.0051255E0,1.0558016E0,2.4300818E0,2.315785E2,1.4781604E2,7.154628E1,1.8468664E1,2.4129124E1,1.8303277E0,1.8521475E1,1.5124146E2],"tree_param":{"num_deleted":"0","num_feature":"13","num_nodes":"65","size_leaf_vector":"1"}},{"base_weights":[-2.978898E-2,3.736449E-2,-3.0076373E-1,5.59353E-1,1.9186648E-2,-1.2760026E-2,3.1846341E-1,-7.3181815E-3,3.2014316E-1,-1.16213605E-1,3.2874453E-1,4.148608E-2,-2.2196032E-1,8.0372274E-1,2.1835768E-1,8.953724E-3,-5.0529224E-1,2.3834446E-2,1.0535125E0,-2.6212022E-1,2.4535811E-1,-6.315289E-2,8.759224E-1,8.0691373E-1,1.0486922E-1,-8.834286E-2,1.4599411E-1,-6.7765466E-3,9.758935E-2,4.2276767E-1,6.920152E-2,-4.4045445E-2,-1.2314662E-1,-2.1994618E-1,1.9486994E-1,2.8784797E-1,-8.365226E-3,2.78607E-1,-1.1051799E-1,-1.7522061E-2,1.5656276E-1],"categories":[],"categories_nodes":[],"categories_segments":[],"categories_sizes":[],"default_left":[0,0,0,0,0,0,0,0,0,0,0,0,0,0,0,0,0,0,0,0,0,0,0,0,0,0,0,0,0,0,0,0,0,0,0,0,0,0,0,0,0],"id":11,"left_children":[1,3,-1,5,7,9,-1,11,13,15,-1,17,19,21,23,25,-1,27,29,31,33,-1,35,37,39,-1,-1,-1,-1,-1,-1,-1,-1,-1,-1,-1,-1,-1,-1,-1,-1],"loss_changes":[1.6169574E2,2.1963703E1,0E0,2.239471E1,1.7862183E1,4.416899E0,0E0,2.1575304E1,8.745659E0,6.907077E0,0E0,2.9953838E1,7.224909E0,2.4648762E0,1.0008197E1,5.000922E0,0E0,2.3104927E1,8.088671E0,5.958603E0,1.2622887E1,0E0,2.2373276E0,3.8167639E0,8.733788E0,0E0,0E0,0E0,0E0,0E0,0E0,0E0,0E0,0E0,0E0,0E0,0E0,0E0,0E0,0E0,0E0],"parents":[2147483647,0,0,1,1,3,3,4,4,5,5,7,7,8,8,9,9,11,11,12,12,13,13,14,14,15,15,17,17,18,18,19,19,20,20,22,22,23,23,24,24],"right_children":[2,4,-1,6,8,10,-1,12,14,16,-1,18,20,22,24,26,-1,28,30,32,34,-1,36,38,40,-1,-1,-1,-1,-1,-1,-1,-1,-1,-1,-1,-1,-1,-1,-1,-1],"split_conditions":[1E0,1.285E3,-3.0076373E-1,1.3E1,1.053E3,5.81E2,3.1846341E-1,2.4385E4,1E0,4.9E2,3.2874453E-1,2.3941E4,1.9E1,3.865E3,6.789E3,6.55E2,-5.0529224E-1,3.351E3,3.659E3,2.1662408E2,6E0,-6.315289E-2,3.1804E4,2.3296364E2,3.859E3,-8.834286E-2,1.4599411E-1,-6.7765466E-3,9.758935E-2,4.2276767E-1,6.920152E-2,-4.4045445E-2,-1.2314662E-1,-2.1994618E-1,1.9486994E-1,2.8784797E-1,-8.365226E-3,2.78607E-1,-1.1051799E-1,-1.7522061E-2,1.5656276E-1],"split_indices":[11,3,0,9,8,6,0,3,7,6,0,3,0,3,3,8,0,6,6,12,9,0,3,12,6,0,0,0,0,0,0,0,0,0,0,0,0,0,0,0,0],"split_type":[0,0,0,0,0,0,0,0,0,0,0,0,0,0,0,0,0,0,0,0,0,0,0,0,0,0,0,0,0,0,0,0,0,0,0,0,0,0,0,0,0],"sum_hessian":[2.4737153E3,2.3148716E3,1.588437E2,7.68989E1,2.2379727E3,3.6402542E1,4.049636E1,2.057727E3,1.8024554E2,3.411414E1,2.2884045E0,1.6771841E3,3.8054306E2,3.0142626E1,1.5010292E2,3.2513184E1,1.6009554E0,1.6494384E3,2.7745745E1,3.5083267E2,2.971039E1,1.8758428E0,2.8266783E1,2.327705E1,1.2682587E2,2.0117886E1,1.2395298E1,1.4301343E3,2.1930408E2,1.8873932E1,8.871812E0,1.9853448E2,1.522982E2,8.44729E0,2.12631E1,2.5817907E1,2.4488761E0,2.1281822E1,1.995226E0,9.175842E1,3.5067444E1],"tree_param":{"num_deleted":"0","num_feature":"13","num_nodes":"41","size_leaf_vector":"1"}},{"base_weights":[-2.3236714E-2,2.762286E-2,-2.9943204E-1,-7.6964654E-2,1.053196E-1,3.8067415E-2,-1.0216023E0,6.0479775E-2,3.028559E-1,7.7968106E-2,-3.2907844E-1,3.3928898E-1,-1.1807353E0,2.119979E-1,-4.186044E-2,-2.865093E-2,2.4155223E-1,-9.7342086E-1,-1.3970156E-1,-1.2969376E0,2.8641552E-1,-1.2732574E0,2.552964E-1,1.5268305E-1,1.1276816E0,-1.2017282E0,1.1953671E-2,7.054886E-2,-5.4623716E-2,1.2992051E-1,1.8170078E-3,-3.0736086E-1,-1.1026733E-1,2.5722347E-2,-1.4189711E-1,-4.508921E-1,-1.3001463E-1,-3.9000294E-1,-2.348382E-3,2.1582353E-1,-2.7317697E-1,5.4803897E-2,-2.2279987E-1,1.8364991E-1,4.3702415E-1,-3.2116607E-1,-5.7538694E-1,9.116044E-2,-9.412243E-3],"categories":[],"categories_nodes":[],"categories_segments":[],"categories_sizes":[],"default_left":[0,0,0,0,0,0,0,0,0,0,0,0,0,0,0,0,0,0,0,0,0,0,0,0,0,0,0,0,0,0,0,0,0,0,0,0,0,0,0,0,0,0,0,0,0,0,0,0,0],"id":12,"left_children":[1,3,-1,5,7,9,11,13,-1,15,17,19,21,23,25,27,29,31,33,35,-1,37,39,41,43,45,47,-1,-1,-1,-1,-1,-1,-1,-1,-1,-1,-1,-1,-1,-1,-1,-1,-1,-1,-1,-1,-1,-1],"loss_changes":[1.1911767E2,1.8566387E1,0E0,1.0587909E2,5.308293E1,1.2759576E1,2.3306442E1,1.9390335E1,0E0,1.3695587E1,1.0284746E1,1.3170906E1,1.2936569E1,2.7204552E1,4.6630825E1,1.9311623E1,1.3969627E1,2.1897507E-1,5.087446E0,3.4952164E-4,0E0,3.0143127E0,4.2147026E0,1.2880631E1,4.283489E0,1.0588455E0,9.049413E0,0E0,0E0,0E0,0E0,0E0,0E0,0E0,0E0,0E0,0E0,0E0,0E0,0E0,0E0,0E0,0E0,0E0,0E0,0E0,0E0,0E0,0E0],"parents":[2147483647,0,0,1,1,3,3,4,4,5,5,6,6,7,7,9,9,10,10,11,11,12,12,13,13,14,14,15,15,16,16,17,17,18,18,19,19,21,21,22,22,23,23,24,24,25,25,26,26],"right_children":[2,4,-1,6,8,10,12,14,-1,16,18,20,22,24,26,28,30,32,34,36,-1,38,40,42,44,46,48,-1,-1,-1,-1,-1,-1,-1,-1,-1,-1,-1,-1,-1,-1,-1,-1,-1,-1,-1,-1,-1,-1],"split_conditions":[1E0,3E0,-2.9943204E-1,2E0,2.6E1,5E0,1.426E3,8.991E3,3.028559E-1,3E0,5.53E2,1.3E1,1.163E3,8.553E3,9.524E3,1E0,4E0,2.9925E4,3.217E3,1.9563495E2,2.8641552E-1,3.5E1,1E1,8.131E3,1.377E3,2.888E3,1.123E4,7.054886E-2,-5.4623716E-2,1.2992051E-1,1.8170078E-3,-3.0736086E-1,-1.1026733E-1,2.5722347E-2,-1.4189711E-1,-4.508921E-1,-1.3001463E-1,-3.9000294E-1,-2.348382E-3,2.1582353E-1,-2.7317697E-1,5.4803897E-2,-2.2279987E-1,1.8364991E-1,4.3702415E-1,-3.2116607E-1,-5.7538694E-1,9.116044E-2,-9.412243E-3],"split_indices":[11,5,0,5,9,7,3,3,0,7,8,9,8,3,3,7,7,3,6,12,0,9,10,3,6,6,3,0,0,0,0,0,0,0,0,0,0,0,0,0,0,0,0,0,0,0,0,0,0],"split_type":[0,0,0,0,0,0,0,0,0,0,0,0,0,0,0,0,0,0,0,0,0,0,0,0,0,0,0,0,0,0,0,0,0,0,0,0,0,0,0,0,0,0,0,0,0,0,0,0,0],"sum_hessian":[2.400907E3,2.2827844E3,1.1812261E2,9.730168E2,1.3097677E3,8.6824677E2,1.04769966E2,1.2489009E3,6.086685E1,7.838474E2,8.439936E1,1.0849961E1,9.3920006E1,5.0304877E2,7.458521E2,4.750497E2,3.0879773E2,1.8230646E1,6.616871E1,2.6628742E0,8.187087E0,8.83416E1,5.5784082E0,4.7354114E2,2.950763E1,3.2124935E1,7.137272E2,1.7448929E2,3.005604E2,1.6983824E2,1.3895949E2,1.6174967E1,2.0556793E0,3.9913334E1,2.6255375E1,1.5521082E0,1.110766E0,8.648588E1,1.8557214E0,4.263962E0,1.3144467E0,4.589607E2,1.458045E1,1.2611195E1,1.6896433E1,2.9260658E1,2.8642766E0,9.1467285E1,6.222599E2],"tree_param":{"num_deleted":"0","num_feature":"13","num_nodes":"49","size_leaf_vector":"1"}},{"base_weights":[-2.0512868E-2,1.8066743E-2,-2.9806522E-1,4.5069328E-1,3.3257997E-3,4.9961463E-1,-5.92218E-1,-2.0091292E-1,3.3724148E-2,-2.4164279E-1,5.6690043E-1,-2.9057997E-1,3.1524953E-2,-1.403681E-1,-7.419148E-1,1.7116804E-1,-4.4011176E-3,-6.8057394E-1,2.3149996E-1,6.304769E-1,-2.3904127E-1,-1.6202712E-1,5.962003E-1,-8.675496E-1,-3.5747167E-1,1.0796036E-1,1.1270189E0,-1.4904518E-1,8.521282E-2,-3.709044E-2,-2.7342635E-1,3.2577583E-1,1.2758945E-1,-3.1771362E-1,1.1573188E-1,-2.7201874E-2,-1.7939503E-1,-9.8274805E-2,-2.8450337E-1,1.71941E-1,-1.8956815E-1,8.005659E-3,1.4755282E-1,4.912254E-1,2.2298847E-1,-1.3299749E-2,-1.70602E-1,3.551031E-1,7.248366E-3],"categories":[],"categories_nodes":[],"categories_segments":[],"categories_sizes":[],"default_left":[0,0,0,0,0,0,0,0,0,0,0,0,0,0,0,0,0,0,0,0,0,0,0,0,0,0,0,0,0,0,0,0,0,0,0,0,0,0,0,0,0,0,0,0,0,0,0,0,0],"id":13,"left_children":[1,3,-1,5,7,9,11,13,15,17,19,-1,-1,21,23,25,27,29,-1,31,33,35,-1,37,39,41,43,45,47,-1,-1,-1,-1,-1,-1,-1,-1,-1,-1,-1,-1,-1,-1,-1,-1,-1,-1,-1,-1],"loss_changes":[8.746215E1,1.4293549E1,0E0,4.0638714E0,1.3471137E1,3.6824627E0,1.090351E0,9.103511E0,9.89709E0,3.4681437E0,3.505268E0,0E0,0E0,1.2029543E1,1.045145E0,2.4657528E1,1.9189484E1,5.492172E-1,0E0,5.2344112E0,3.23261E0,7.7976646E0,0E0,5.814028E-1,2.5615106E0,1.2023902E1,3.7444305E0,2.4858988E1,6.1275723E1,0E0,0E0,0E0,0E0,0E0,0E0,0E0,0E0,0E0,0E0,0E0,0E0,0E0,0E0,0E0,0E0,0E0,0E0,0E0,0E0],"parents":[2147483647,0,0,1,1,3,3,4,4,5,5,6,6,7,7,8,8,9,9,10,10,13,13,14,14,15,15,16,16,17,17,19,19,20,20,21,21,23,23,24,24,25,25,26,26,27,27,28,28],"right_children":[2,4,-1,6,8,10,12,14,16,18,20,-1,-1,22,24,26,28,30,-1,32,34,36,-1,38,40,42,44,46,48,-1,-1,-1,-1,-1,-1,-1,-1,-1,-1,-1,-1,-1,-1,-1,-1,-1,-1,-1,-1],"split_conditions":[1E0,1.7958656E2,-2.9806522E-1,4.379E3,3.02E2,1.48E2,3.1E1,2.6329E4,6.531E3,4E0,1.5E1,-2.9057997E-1,3.1524953E-2,2.6005E4,9E0,6.294E3,1.5302E4,1E0,2.3149996E-1,1.6969847E2,2E0,8E0,5.962003E-1,1E0,5E0,2.109E3,6.31E2,1.3487E4,1.5761E4,-3.709044E-2,-2.7342635E-1,3.2577583E-1,1.2758945E-1,-3.1771362E-1,1.1573188E-1,-2.7201874E-2,-1.7939503E-1,-9.8274805E-2,-2.8450337E-1,1.71941E-1,-1.8956815E-1,8.005659E-3,1.4755282E-1,4.912254E-1,2.2298847E-1,-1.3299749E-2,-1.70602E-1,3.551031E-1,7.248366E-3],"split_indices":[11,12,0,6,8,8,9,3,3,4,0,0,0,3,4,3,3,1,0,12,7,10,0,10,10,6,8,3,3,0,0,0,0,0,0,0,0,0,0,0,0,0,0,0,0,0,0,0,0],"split_type":[0,0,0,0,0,0,0,0,0,0,0,0,0,0,0,0,0,0,0,0,0,0,0,0,0,0,0,0,0,0,0,0,0,0,0,0,0,0,0,0,0,0,0,0,0,0,0,0,0],"sum_hessian":[2.3283965E3,2.2405435E3,8.7853035E1,7.285235E1,2.1676912E3,7.008568E1,2.7666664E0,2.8010797E2,1.8875831E3,5.616786E0,6.4468895E1,1.5441251E0,1.2225413E0,2.5304822E2,2.7059769E1,4.0913544E2,1.4784478E3,4.148264E0,1.468522E0,5.9956924E1,4.511971E0,2.514128E2,1.6354159E0,1.944769E1,7.61208E0,3.848025E2,2.4332943E1,5.6531726E2,9.131305E2,1.6655494E0,2.4827147E0,1.7288496E1,4.2668427E1,1.6506661E0,2.861305E0,2.1708917E2,3.4323616E1,3.1890688E0,1.625862E1,1.4856131E0,6.126467E0,3.1845032E2,6.635217E1,9.040637E0,1.5292305E1,4.5330627E2,1.1201097E2,4.7110573E1,8.660199E2],"tree_param":{"num_deleted":"0","num_feature":"13","num_nodes":"49","size_leaf_vector":"1"}},{"base_weights":[-1.6376624E-2,1.2697689E-2,-2.9654592E-1,6.556697E-2,-8.495323E-2,-5.5011943E-2,1.4336044E-1,1.0841489E-1,-1.2606843E-1,1.446725E-1,-2.537465E-1,4.5221215E-1,6.1881553E-2,-6.7715943E-3,9.3351763E-1,4.5154747E-1,-1.4268824E-1,6.2348295E-2,4.8599657E-1,-5.14547E-1,-7.470241E-2,1.4208366E0,2.4371126E-1,-1.8994318E-1,1.19936876E-1,3.6995806E-2,-4.3217975E-1,3.2129827E-1,1.042438E0,2.2537017E-2,8.47447E-1,-4.2942995E-1,-1.1631382E-1,3.2095827E-2,-1.2036955E-1,9.0923265E-2,2.2273165E-1,-1.1551752E-1,-2.433932E-1,-3.16842E-2,2.7559024E-1,1.422501E-1,4.4038048E-1,2.9671782E-1,1.6226195E-2,2.355711E-1,-7.0228435E-2,2.2188712E-2,9.8785914E-2,1.2979046E-1,-2.2610594E-2,-1.867876E-2,1.9539532E-1,3.3177403E-1,3.423238E-2,1.8648818E-1,-1.3777801E-1,3.0510637E-1,-3.4442063E-2,-1.4905396E-1,1.0095673E-1,6.375954E-2,-4.754983E-2],"categories":[],"categories_nodes":[],"categories_segments":[],"categories_sizes":[],"default_left":[0,0,0,0,0,0,0,0,0,0,0,0,0,0,0,0,0,0,0,0,0,0,0,0,0,0,0,0,0,0,0,0,0,0,0,0,0,0,0,0,0,0,0,0,0,0,0,0,0,0,0,0,0,0,0,0,0,0,0,0,0,0,0],"id":14,"left_children":[1,3,-1,5,7,9,11,13,15,17,19,21,23,25,27,29,31,33,35,37,39,41,43,45,47,49,-1,51,53,55,57,59,61,-1,-1,-1,-1,-1,-1,-1,-1,-1,-1,-1,-1,-1,-1,-1,-1,-1,-1,-1,-1,-1,-1,-1,-1,-1,-1,-1,-1,-1,-1],"loss_changes":[6.459752E1,1.1465476E1,0E0,1.3521375E1,6.215781E0,2.2485231E1,2.2015278E1,1.3057693E1,6.2446365E0,7.9162207E0,1.3217138E1,3.6549774E1,1.0172729E1,7.6776705E0,7.8731346E-1,3.0798273E0,4.6883087E0,4.781556E0,2.3459034E0,4.121582E0,5.301352E0,7.375107E-1,2.1364296E1,5.80068E0,5.4117613E0,5.3170943E0,0E0,5.4529595E-1,6.894665E-1,3.1095269E0,1.6606545E0,2.87317E0,8.012226E0,0E0,0E0,0E0,0E0,0E0,0E0,0E0,0E0,0E0,0E0,0E0,0E0,0E0,0E0,0E0,0E0,0E0,0E0,0E0,0E0,0E0,0E0,0E0,0E0,0E0,0E0,0E0,0E0,0E0,0E0],"parents":[2147483647,0,0,1,1,3,3,4,4,5,5,6,6,7,7,8,8,9,9,10,10,11,11,12,12,13,13,14,14,15,15,16,16,17,17,18,18,19,19,20,20,21,21,22,22,23,23,24,24,25,25,27,27,28,28,29,29,30,30,31,31,32,32],"right_children":[2,4,-1,6,8,10,12,14,16,18,20,22,24,26,28,30,32,34,36,38,40,42,44,46,48,50,-1,52,54,56,58,60,62,-1,-1,-1,-1,-1,-1,-1,-1,-1,-1,-1,-1,-1,-1,-1,-1,-1,-1,-1,-1,-1,-1,-1,-1,-1,-1,-1,-1,-1,-1],"split_conditions":[1E0,2.1717622E2,-2.9654592E-1,2E0,1E0,1E0,3E0,9.37E2,1.285E3,8.95E2,4E0,4E0,4.52E2,9.16E2,2.2011745E2,1.2E1,3.865E3,1E1,1.5E1,1.785E4,1.3E1,1.426E3,6.789E3,1.7404004E2,9.84E2,2.2075168E2,-4.3217975E-1,3E0,3.2813E4,9E0,2E1,2.5E1,6.531E3,3.2095827E-2,-1.2036955E-1,9.0923265E-2,2.2273165E-1,-1.1551752E-1,-2.433932E-1,-3.16842E-2,2.7559024E-1,1.422501E-1,4.4038048E-1,2.9671782E-1,1.6226195E-2,2.355711E-1,-7.0228435E-2,2.2188712E-2,9.8785914E-2,1.2979046E-1,-2.2610594E-2,-1.867876E-2,1.9539532E-1,3.3177403E-1,3.423238E-2,1.8648818E-1,-1.3777801E-1,3.0510637E-1,-3.4442063E-2,-1.4905396E-1,1.0095673E-1,6.375954E-2,-4.754983E-2],"split_indices":[11,12,0,7,7,7,7,8,3,8,0,0,8,8,12,9,3,4,9,3,10,3,3,12,8,12,0,5,3,9,4,9,3,0,0,0,0,0,0,0,0,0,0,0,0,0,0,0,0,0,0,0,0,0,0,0,0,0,0,0,0,0,0],"split_type":[0,0,0,0,0,0,0,0,0,0,0,0,0,0,0,0,0,0,0,0,0,0,0,0,0,0,0,0,0,0,0,0,0,0,0,0,0,0,0,0,0,0,0,0,0,0,0,0,0,0,0,0,0,0,0,0,0,0,0,0,0,0,0],"sum_hessian":[2.284108E3,2.2187358E3,6.537205E1,1.4396318E3,7.7910394E2,5.646791E2,8.7495276E2,1.3632404E2,6.427799E2,2.8180212E2,2.8287698E2,1.8169072E2,6.93262E2,1.20494484E2,1.582955E1,1.7245615E1,6.255343E2,2.279946E2,5.3807514E1,1.1438575E2,1.6849123E2,3.1152452E1,1.5053827E2,1.2945546E2,5.638066E2,1.178707E2,2.62379E0,2.987464E0,1.2842086E1,8.783948E0,8.461666E0,5.1402824E1,5.741315E2,2.0867104E2,1.9323566E1,3.2679348E1,2.1128164E1,8.123677E1,3.3148983E1,1.642729E2,4.2183228E0,2.0009646E0,2.9151487E1,2.9675993E1,1.20862274E2,4.8802376E0,1.2457522E2,4.6339526E2,1.00411316E2,2.5441174E1,9.242952E1,1.7568847E0,1.2305794E0,1.1841144E1,1.0009425E0,3.78601E0,4.997938E0,7.145522E0,1.3161435E0,4.7567436E1,3.835391E0,6.481863E1,5.0931287E2],"tree_param":{"num_deleted":"0","num_feature":"13","num_nodes":"63","size_leaf_vector":"1"}},{"base_weights":[-1.1734756E-2,1.0383689E-2,-2.9475042E-1,-6.486211E-2,6.5819934E-2,2.4307905E-2,-9.534122E-1,3.1968247E-2,2.9872176E-1,8.540937E-2,-1.5855691E-1,2.0324463E-1,-1.0867691E0,3.929848E-3,2.623916E-1,1.4255926E-1,-1.3756013E-1,-6.903064E-1,-9.845742E-2,-3.4795597E-1,2.5459695E-1,-1.1727469E0,1.127956E-1,1.9266628E-2,-1.0414062E0,5.304044E-1,1.4991851E-1,3.5453785E-2,2.5134066E-1,-5.267865E-2,3.1905493E-1,1.1806283E-1,-2.4284993E-1,-5.904739E-2,7.492286E-2,-3.607234E-1,-2.2642307E-2,2.2220145E-1,-1.8167387E-1,5.150374E-4,1.2320255E-1,-1.2136516E-2,-4.4516703E-1,2.005593E-1,-1.0536041E-1,-6.959332E-1,6.729428E-2],"categories":[],"categories_nodes":[],"categories_segments":[],"categories_sizes":[],"default_left":[0,0,0,0,0,0,0,0,0,0,0,0,0,0,0,0,0,0,0,0,0,0,0,0,0,0,0,0,0,0,0,0,0,0,0,0,0,0,0,0,0,0,0,0,0,0,0],"id":15,"left_children":[1,3,-1,5,7,9,11,13,-1,15,17,19,21,23,25,27,29,31,33,-1,-1,35,37,39,41,43,45,-1,-1,-1,-1,-1,-1,-1,-1,-1,-1,-1,-1,-1,-1,-1,-1,-1,-1,-1,-1],"loss_changes":[4.789059E1,9.102924E0,0E0,7.337588E1,3.9519817E1,9.425232E0,1.3248573E1,7.8379607E0,0E0,8.07328E0,6.685172E0,9.406731E0,7.9588394E0,1.7378403E1,3.8877487E0,8.43649E0,6.100651E0,3.0691786E0,6.5919495E0,0E0,0E0,2.21698E0,3.149221E0,7.3359036E0,6.8819714E0,4.924309E0,1.7809673E1,0E0,0E0,0E0,0E0,0E0,0E0,0E0,0E0,0E0,0E0,0E0,0E0,0E0,0E0,0E0,0E0,0E0,0E0,0E0,0E0],"parents":[2147483647,0,0,1,1,3,3,4,4,5,5,6,6,7,7,9,9,10,10,11,11,12,12,13,13,14,14,15,15,16,16,17,17,18,18,21,21,22,22,23,23,24,24,25,25,26,26],"right_children":[2,4,-1,6,8,10,12,14,-1,16,18,20,22,24,26,28,30,32,34,-1,-1,36,38,40,42,44,46,-1,-1,-1,-1,-1,-1,-1,-1,-1,-1,-1,-1,-1,-1,-1,-1,-1,-1,-1,-1],"split_conditions":[1E0,3E0,-2.9475042E-1,2E0,2.6E1,2.6497E4,1.426E3,9.84E2,2.9872176E-1,2.3E1,3.43E2,1.3E1,1.163E3,9.76E2,1.422E3,3.84E3,1E0,3E0,8E0,-3.4795597E-1,2.5459695E-1,3.5E1,7E0,9.37E2,2E0,1.7723E4,1.579E3,3.5453785E-2,2.5134066E-1,-5.267865E-2,3.1905493E-1,1.1806283E-1,-2.4284993E-1,-5.904739E-2,7.492286E-2,-3.607234E-1,-2.2642307E-2,2.2220145E-1,-1.8167387E-1,5.150374E-4,1.2320255E-1,-1.2136516E-2,-4.4516703E-1,2.005593E-1,-1.0536041E-1,-6.959332E-1,6.729428E-2],"split_indices":[11,5,0,5,9,3,3,8,0,9,8,9,8,8,6,6,5,9,10,0,0,9,4,8,4,3,6,0,0,0,0,0,0,0,0,0,0,0,0,0,0,0,0,0,0,0,0],"split_type":[0,0,0,0,0,0,0,0,0,0,0,0,0,0,0,0,0,0,0,0,0,0,0,0,0,0,0,0,0,0,0,0,0,0,0,0,0,0,0,0,0,0,0,0,0,0,0],"sum_hessian":[2.2289146E3,2.1802285E3,4.8686142E1,9.2479614E2,1.2554323E3,8.4133685E2,8.345931E1,1.2123342E3,4.309801E1,6.3102313E2,2.1031372E2,8.573543E0,7.4885765E1,1.0817247E3,1.306095E2,5.0256897E2,1.2845413E2,2.0291561E1,1.9002217E2,2.49888E0,6.0746627E0,6.9898224E1,4.9875464E0,1.0670509E3,1.4673805E1,3.7510254E1,9.309924E1,4.8667288E2,1.5896107E1,1.2533874E2,3.1153908E0,1.7823719E0,1.850919E1,1.485042E2,4.1517967E1,6.7965E1,1.9332262E0,2.644851E0,2.3426957E0,1.0222213E3,4.4829613E1,4.83282E0,9.840985E0,3.2638298E1,4.871956E0,1.8398736E0,9.125937E1],"tree_param":{"num_deleted":"0","num_feature":"13","num_nodes":"47","size_leaf_vector":"1"}},{"base_weights":[-9.770276E-3,7.0012873E-3,-2.9254168E-1,3.7935257E-1,-3.3547224E-3,-6.517916E-2,3.021642E-1,-2.0672692E-1,1.4431522E-2,6.2006366E-1,-1.972795E-1,-2.4656703E-1,6.775115E-1,2.0638563E-1,-1.6048491E-2,1.2394834E-1,3.0831516E-1,-4.5010585E-1,3.4785035E-1,-2.0988248E-1,-1.0395106E0,2.8486442E-2,7.543191E-1,1.252888E-1,8.121406E-1,-4.3311256E-1,2.5632048E-3,-1.7722127E-1,2.812674E-1,-2.1840979E-1,4.5537215E-2,2.3388003E-1,-4.1109035E-4,-2.7798127E-2,-1.3233624E-1,-1.3651642E-1,-3.8444516E-1,2.669996E-1,5.3668E-2,1.3364545E-1,7.419375E-3,1.0662719E-1,3.7948596E-1,-1.7454249E-1,2.4225073E-1,-4.955831E-2,1.23680085E-2],"categories":[],"categories_nodes":[],"categories_segments":[],"categories_sizes":[],"default_left":[0,0,0,0,0,0,0,0,0,0,0,0,0,0,0,0,0,0,0,0,0,0,0,0,0,0,0,0,0,0,0,0,0,0,0,0,0,0,0,0,0,0,0,0,0,0,0],"id":16,"left_children":[1,3,-1,5,7,9,-1,11,13,15,17,19,21,23,25,27,-1,29,31,33,35,-1,37,39,41,43,45,-1,-1,-1,-1,-1,-1,-1,-1,-1,-1,-1,-1,-1,-1,-1,-1,-1,-1,-1,-1],"loss_changes":[3.537184E1,8.283991E0,0E0,1.6290672E1,7.5660076E0,3.2882407E0,0E0,6.093013E0,1.1257944E1,1.064636E0,4.302353E0,4.485403E0,2.6481867E-1,1.285071E1,1.2893879E1,2.7609496E0,0E0,3.621048E0,1.5231262E0,4.182288E0,3.92241E-1,0E0,3.482082E-1,7.5141926E0,5.950779E0,1.3560169E1,1.0326138E1,0E0,0E0,0E0,0E0,0E0,0E0,0E0,0E0,0E0,0E0,0E0,0E0,0E0,0E0,0E0,0E0,0E0,0E0,0E0,0E0],"parents":[2147483647,0,0,1,1,3,3,4,4,5,5,7,7,8,8,9,9,10,10,11,11,12,12,13,13,14,14,15,15,17,17,18,18,19,19,20,20,22,22,23,23,24,24,25,25,26,26],"right_children":[2,4,-1,6,8,10,-1,12,14,16,18,20,22,24,26,28,-1,30,32,34,36,-1,38,40,42,44,46,-1,-1,-1,-1,-1,-1,-1,-1,-1,-1,-1,-1,-1,-1,-1,-1,-1,-1,-1,-1],"split_conditions":[1E0,1.285E3,-2.9254168E-1,1.3E1,3.865E3,1.74E2,3.021642E-1,3E1,6.531E3,5E0,9.81E2,2.4852907E2,2.465E3,6.294E3,3.13E2,4E0,3.0831516E-1,7.4E2,2E0,1.377E3,3E0,2.8486442E-2,6E0,8.92E2,1.645E3,1.1E1,1.0825E4,-1.7722127E-1,2.812674E-1,-2.1840979E-1,4.5537215E-2,2.3388003E-1,-4.1109035E-4,-2.7798127E-2,-1.3233624E-1,-1.3651642E-1,-3.8444516E-1,2.669996E-1,5.3668E-2,1.3364545E-1,7.419375E-3,1.0662719E-1,3.7948596E-1,-1.7454249E-1,2.4225073E-1,-4.955831E-2,1.23680085E-2],"split_indices":[11,3,0,9,3,3,0,9,3,0,3,12,6,3,6,2,0,8,4,6,7,0,10,6,6,10,3,0,0,0,0,0,0,0,0,0,0,0,0,0,0,0,0,0,0,0,0],"split_type":[0,0,0,0,0,0,0,0,0,0,0,0,0,0,0,0,0,0,0,0,0,0,0,0,0,0,0,0,0,0,0,0,0,0,0,0,0,0,0,0,0,0,0,0,0,0,0],"sum_hessian":[2.183274E3,2.1469668E3,3.6306984E1,5.7132473E1,2.0898345E3,3.397444E1,2.3158031E1,1.6721661E2,1.9226178E3,4.8939934E0,2.9080448E1,1.606974E2,6.5192027E0,2.6266434E2,1.6599534E3,2.7956877E0,2.0983055E0,1.9985613E1,9.094834E0,1.5480045E2,5.8969607E0,1.0199013E0,5.4993014E0,2.3271582E2,2.9948528E1,6.9960396E1,1.589993E3,1.6341543E0,1.1615335E0,1.3529007E1,6.4566064E0,3.5157857E0,5.579048E0,1.0365509E2,5.1145355E1,2.570014E0,3.3269467E0,4.0076585E0,1.4916432E0,5.4797886E1,1.7791794E2,1.579862E1,1.4149909E1,6.2946842E1,7.013554E0,2.971991E2,1.292794E3],"tree_param":{"num_deleted":"0","num_feature":"13","num_nodes":"47","size_leaf_vector":"1"}},{"base_weights":[-6.9305846E-3,5.6969677E-3,-2.8976485E-1,2.6740976E-2,-1.7451096E-1,-5.307782E-2,8.832097E-2,-7.833709E-1,-4.435881E-2,8.9515045E-2,-1.8916066E-1,2.8467873E-1,2.5089497E-2,3.131482E-2,-8.645892E-1,3.855451E-2,-5.723869E-1,2.5110869E-2,5.5978376E-1,-3.1914937E-1,1.3046656E-2,8.6329114E-1,-1.8835727E-2,-4.277102E-2,2.9290324E-1,-1.5558435E-1,1.9074765E-1,-9.5721555E-1,-4.294458E-1,7.875381E-1,-4.184207E-2,-9.547847E-1,-1.0742448E-1,5.1230453E-3,3.5327774E-1,1.03291504E-1,2.5592062E-1,-5.921013E-2,-1.6761191E-1,-9.252467E-3,2.4968098E-1,-2.1419616E-2,4.90607E-1,3.1073242E-1,-3.24139E-2,-2.8838327E-2,6.132393E-2,7.145165E-2,6.4177537E-1,-2.9655746E-1,-1.3153633E-1,-2.7028978E-1,4.068828E-2,2.9120716E-1,-7.131672E-2,-1.798304E-1,1.8703751E-2,-1.71665E-1,-3.5360074E-1,1.5958257E-1,-1.8244894E-1],"categories":[],"categories_nodes":[],"categories_segments":[],"categories_sizes":[],"default_left":[0,0,0,0,0,0,0,0,0,0,0,0,0,0,0,0,0,0,0,0,0,0,0,0,0,0,0,0,0,0,0,0,0,0,0,0,0,0,0,0,0,0,0,0,0,0,0,0,0,0,0,0,0,0,0,0,0,0,0,0,0],"id":17,"left_children":[1,3,-1,5,7,9,11,13,15,17,19,21,23,25,27,29,31,33,35,37,39,41,43,45,47,-1,-1,49,51,53,55,57,59,-1,-1,-1,-1,-1,-1,-1,-1,-1,-1,-1,-1,-1,-1,-1,-1,-1,-1,-1,-1,-1,-1,-1,-1,-1,-1,-1,-1],"loss_changes":[2.6204668E1,8.106706E0,0E0,9.412042E0,1.7678873E1,1.6203064E1,1.3411681E1,2.6279507E0,8.131276E0,1.234341E1,1.1231326E1,4.623171E1,1.4889912E1,1.8351865E0,1.0310287E0,9.729089E0,4.378112E0,3.3123207E0,2.8092308E0,7.475998E0,6.069578E0,6.547383E1,1.644396E1,8.645085E0,1.6226715E1,0E0,0E0,3.24955E-2,2.2785525E0,3.1712532E0,8.5403E0,4.9907398E-1,4.3252354E0,0E0,0E0,0E0,0E0,0E0,0E0,0E0,0E0,0E0,0E0,0E0,0E0,0E0,0E0,0E0,0E0,0E0,0E0,0E0,0E0,0E0,0E0,0E0,0E0,0E0,0E0,0E0,0E0],"parents":[2147483647,0,0,1,1,3,3,4,4,5,5,6,6,7,7,8,8,9,9,10,10,11,11,12,12,13,13,14,14,15,15,16,16,17,17,18,18,19,19,20,20,21,21,22,22,23,23,24,24,27,27,28,28,29,29,30,30,31,31,32,32],"right_children":[2,4,-1,6,8,10,12,14,16,18,20,22,24,26,28,30,32,34,36,38,40,42,44,46,48,-1,-1,50,52,54,56,58,60,-1,-1,-1,-1,-1,-1,-1,-1,-1,-1,-1,-1,-1,-1,-1,-1,-1,-1,-1,-1,-1,-1,-1,-1,-1,-1,-1,-1],"split_conditions":[1E0,5E0,-2.8976485E-1,2E0,5.54E2,1E0,3E0,1.285E3,2.3512541E2,9.37E2,5E0,1.3487E4,3.165E3,1.3E1,2.5E1,5.58E2,1.6765E4,3.4E1,1.5E1,1.8003E4,2.5E1,3E0,4E0,8.95E2,3.3638E4,-1.5558435E-1,1.9074765E-1,2.9925E4,3E0,2.2E1,6.55E2,8.836E3,1.2E1,5.1230453E-3,3.5327774E-1,1.03291504E-1,2.5592062E-1,-5.921013E-2,-1.6761191E-1,-9.252467E-3,2.4968098E-1,-2.1419616E-2,4.90607E-1,3.1073242E-1,-3.24139E-2,-2.8838327E-2,6.132393E-2,7.145165E-2,6.4177537E-1,-2.9655746E-1,-1.3153633E-1,-2.7028978E-1,4.068828E-2,2.9120716E-1,-7.131672E-2,-1.798304E-1,1.8703751E-2,-1.71665E-1,-3.5360074E-1,1.5958257E-1,-1.8244894E-1],"split_indices":[11,7,0,7,8,7,7,3,12,8,4,3,6,9,9,8,3,0,9,3,0,5,0,8,3,0,0,3,5,9,8,3,0,0,0,0,0,0,0,0,0,0,0,0,0,0,0,0,0,0,0,0,0,0,0,0,0,0,0,0,0],"split_type":[0,0,0,0,0,0,0,0,0,0,0,0,0,0,0,0,0,0,0,0,0,0,0,0,0,0,0,0,0,0,0,0,0,0,0,0,0,0,0,0,0,0,0,0,0,0,0,0,0,0,0,0,0,0,0,0,0,0,0,0,0],"sum_hessian":[2.162572E3,2.1354463E3,2.7125654E1,1.9129149E3,2.2253146E2,8.331457E2,1.0797693E3,3.830753E1,1.8422392E2,4.0700858E2,4.2613715E2,2.6216016E2,8.176091E2,3.5284765E0,3.4779053E1,1.6002335E2,2.420059E1,3.5890875E2,4.8099823E1,2.590371E2,1.6710002E2,8.956719E1,1.7259297E2,6.529902E2,1.6461891E2,1.9220556E0,1.6064209E0,2.7685942E1,7.0931115E0,1.4659366E1,1.4536397E2,1.27012615E1,1.1499329E1,3.5743185E2,1.4768726E0,2.8981127E1,1.9118698E1,1.7294292E2,8.60942E1,1.595166E2,7.5834227E0,4.0927013E1,4.8640175E1,1.2633584E1,1.5995938E2,5.3756366E2,1.1542647E2,1.6097612E2,3.6428E0,2.5256092E1,2.4298496E0,3.5425997E0,3.5505116E0,1.2482686E1,2.17668E0,2.2137129E1,1.23226845E2,6.0016494E0,6.699612E0,5.023182E0,6.4761467E0],"tree_param":{"num_deleted":"0","num_feature":"13","num_nodes":"61","size_leaf_vector":"1"}},{"base_weights":[-5.2506058E-3,4.3954477E-3,-2.862458E-1,2.3326285E-2,-1.6478708E-1,-3.9367402E-1,3.2345884E-2,-3.2985467E-1,-2.5947625E-2,-5.071783E-1,1.899821E-1,1.2373481E-1,-9.850222E-3,-1.7529412E-1,-6.86493E-1,8.264667E-1,-1.1887683E-1,-8.4836364E-2,-7.956466E-1,4.4497553E-1,-3.8120472E-1,7.846837E-2,4.331835E-1,-2.8853038E-1,4.1766595E-2,2.093319E-2,-5.61884E-1,-1.5101013E-1,-1.0706215E0,3.8400298E-1,1.4166461E0,-1.6647433E-1,6.209848E-1,2.8652778E-1,-1.2022854E-1,9.11038E-2,-2.6092383E-1,4.3135986E-2,-2.829998E-1,-1.5860713E-3,8.99873E-2,2.5435212E-1,2.2759749E-2,-1.7133294E-1,-3.3175796E-2,7.645498E-2,-7.45943E-4,-9.723868E-2,6.863884E-2,4.1914143E-2,-2.1981375E-1,2.0288083E-1,-1.598234E-1,-3.6105847E-1,-4.5987688E-2,3.3560154E-1,-3.987401E-2,1.19271144E-1,4.8519492E-1,-3.0976528E-1,-3.8125597E-2,-8.682315E-2,3.0063128E-1],"categories":[],"categories_nodes":[],"categories_segments":[],"categories_sizes":[],"default_left":[0,0,0,0,0,0,0,0,0,0,0,0,0,0,0,0,0,0,0,0,0,0,0,0,0,0,0,0,0,0,0,0,0,0,0,0,0,0,0,0,0,0,0,0,0,0,0,0,0,0,0,0,0,0,0,0,0,0,0,0,0,0,0],"id":18,"left_children":[1,3,-1,5,7,9,11,13,15,17,19,21,23,25,27,29,31,33,35,-1,37,39,41,43,45,47,49,51,53,55,57,59,61,-1,-1,-1,-1,-1,-1,-1,-1,-1,-1,-1,-1,-1,-1,-1,-1,-1,-1,-1,-1,-1,-1,-1,-1,-1,-1,-1,-1,-1,-1],"loss_changes":[1.9389397E1,6.7218184E0,0E0,7.111356E0,4.8319716E0,2.7485247E0,7.128766E0,5.193796E0,9.271678E0,4.049074E0,5.9176273E0,8.1451645E0,1.8214308E1,5.2157936E0,5.7634478E0,2.4615555E0,3.8114266E0,5.255634E0,1.8898048E0,0E0,1.8535783E0,9.473927E0,1.0943273E1,9.886702E0,1.00763855E1,3.4071004E0,2.8749275E0,4.527742E0,1.8404655E0,3.1677587E0,2.89464E-1,3.2706091E0,2.5716717E0,0E0,0E0,0E0,0E0,0E0,0E0,0E0,0E0,0E0,0E0,0E0,0E0,0E0,0E0,0E0,0E0,0E0,0E0,0E0,0E0,0E0,0E0,0E0,0E0,0E0,0E0,0E0,0E0,0E0,0E0],"parents":[2147483647,0,0,1,1,3,3,4,4,5,5,6,6,7,7,8,8,9,9,10,10,11,11,12,12,13,13,14,14,15,15,16,16,17,17,18,18,20,20,21,21,22,22,23,23,24,24,25,25,26,26,27,27,28,28,29,29,30,30,31,31,32,32],"right_children":[2,4,-1,6,8,10,12,14,16,18,20,22,24,26,28,30,32,34,36,-1,38,40,42,44,46,48,50,52,54,56,58,60,62,-1,-1,-1,-1,-1,-1,-1,-1,-1,-1,-1,-1,-1,-1,-1,-1,-1,-1,-1,-1,-1,-1,-1,-1,-1,-1,-1,-1,-1,-1],"split_conditions":[1E0,2.3432518E2,-2.862458E-1,3E0,1.407E4,8E0,1.377E3,1.9E1,1.5919E4,5E0,9E0,4E0,1.795E3,8.991E3,5.58E2,1.5549E4,1.207E3,1E0,1.7495706E2,4.4497553E-1,1.7E1,1.198E3,1E0,2E0,8.836E3,8E0,6E0,1E1,1.8E1,1.1E1,9E0,4E0,2.193E3,2.8652778E-1,-1.2022854E-1,9.11038E-2,-2.6092383E-1,4.3135986E-2,-2.829998E-1,-1.5860713E-3,8.99873E-2,2.5435212E-1,2.2759749E-2,-1.7133294E-1,-3.3175796E-2,7.645498E-2,-7.45943E-4,-9.723868E-2,6.863884E-2,4.1914143E-2,-2.1981375E-1,2.0288083E-1,-1.598234E-1,-3.6105847E-1,-4.5987688E-2,3.3560154E-1,-3.987401E-2,1.19271144E-1,4.8519492E-1,-3.0976528E-1,-3.8125597E-2,-8.682315E-2,3.0063128E-1],"split_indices":[11,12,0,9,3,10,6,0,3,0,4,2,6,3,8,3,8,7,12,0,0,6,1,7,3,4,0,9,10,4,0,0,6,0,0,0,0,0,0,0,0,0,0,0,0,0,0,0,0,0,0,0,0,0,0,0,0,0,0,0,0,0,0],"split_type":[0,0,0,0,0,0,0,0,0,0,0,0,0,0,0,0,0,0,0,0,0,0,0,0,0,0,0,0,0,0,0,0,0,0,0,0,0,0,0,0,0,0,0,0,0,0,0,0,0,0,0,0,0,0,0,0,0,0,0,0,0,0,0],"sum_hessian":[2.1168704E3,2.0965532E3,2.0317123E1,1.8863414E3,2.102118E2,3.9034298E1,1.8473071E3,9.540641E1,1.148054E2,3.278885E1,6.2454515E0,5.8290686E2,1.2644003E3,6.760092E1,2.7805489E1,1.0509658E1,1.0429574E2,1.383189E1,1.8956957E1,1.4241441E0,4.821307E0,5.0961368E2,7.329318E1,1.9687556E2,1.0675247E3,4.546793E1,2.2132996E1,1.2196478E1,1.5609011E1,6.9498997E0,3.5597582E0,9.8719795E1,5.575946E0,2.7515333E0,1.1080357E1,1.0014439E0,1.7955513E1,2.8778195E0,1.9434879E0,3.704904E2,1.3912329E2,3.328921E1,4.0003967E1,7.521813E1,1.2165743E2,1.8275941E2,8.847653E2,1.6882633E1,2.8585295E1,4.3694925E0,1.7763502E1,3.6073043E0,8.589173E0,1.3361192E1,2.247819E0,2.3895788E0,4.5603213E0,1.0761079E0,2.4836504E0,3.197597E0,9.5522194E1,1.7164425E0,3.8595033E0],"tree_param":{"num_deleted":"0","num_feature":"13","num_nodes":"63","size_leaf_vector":"1"}},{"base_weights":[-4.6354276E-3,2.6409142E-3,-2.8179505E-1,-1.955338E-1,1.6404709E-2,-8.264421E-2,-4.6530402E-1,4.13931E-2,-8.693775E-2,-1.3401318E-1,1.2677454E0,-2.8621462E-1,-6.9863766E-1,1.4813133E-2,3.6172402E-1,-9.6709704E-1,-3.9226092E-2,-4.7177386E-2,-6.5939325E-1,5.0517E-2,5.3362876E-1,3.4374367E-3,-6.224473E-1,-8.053679E-1,7.079865E-2,3.5762724E-2,-4.8951805E-1,8.177004E-1,1.6099663E-1,-4.373771E-1,-1.6857425E0,4.150859E-1,-8.037247E-2,-1.0854246E-1,4.0620446E-2,5.8472943E-2,-2.7987042E-1,-1.6447002E-1,1.7273626E-1,-2.510212E-1,8.595664E-3,4.2400975E-2,-2.765026E-1,4.884659E-3,3.6620724E-1,-2.6200977E-1,-3.4629893E-2,-1.0051604E-1,3.3464247E-1,-1.1833257E-1,1.2610576E-1,-2.5056642E-1,1.3652979E-1,-1.5549031E-1,-5.932206E-1,3.4177715E-1,4.1662186E-2,-2.7029735E-1,-1.166014E-2],"categories":[],"categories_nodes":[],"categories_segments":[],"categories_sizes":[],"default_left":[0,0,0,0,0,0,0,0,0,0,0,0,0,0,0,0,0,0,0,0,0,0,0,0,0,0,0,0,0,0,0,0,0,0,0,0,0,0,0,0,0,0,0,0,0,0,0,0,0,0,0,0,0,0,0,0,0,0,0],"id":19,"left_children":[1,3,-1,5,7,9,11,13,15,17,19,21,23,25,27,29,31,33,35,-1,-1,37,39,41,-1,43,45,47,49,51,53,55,57,-1,-1,-1,-1,-1,-1,-1,-1,-1,-1,-1,-1,-1,-1,-1,-1,-1,-1,-1,-1,-1,-1,-1,-1,-1,-1],"loss_changes":[1.4323041E1,5.7049704E0,0E0,4.0981736E0,5.053502E0,6.896868E0,1.4655209E0,1.3408503E1,1.5965998E1,4.272197E0,1.7506452E0,2.3631737E0,1.8472633E0,1.5398485E1,1.0912506E1,6.706602E0,6.81057E0,4.760835E0,3.289949E0,0E0,0E0,4.7418704E0,1.5901122E0,1.7969685E0,0E0,3.2265E1,8.245891E0,1.29499035E1,1.241465E1,4.8564715E0,1.6810551E0,5.8966837E0,1.1316408E1,0E0,0E0,0E0,0E0,0E0,0E0,0E0,0E0,0E0,0E0,0E0,0E0,0E0,0E0,0E0,0E0,0E0,0E0,0E0,0E0,0E0,0E0,0E0,0E0,0E0,0E0],"parents":[2147483647,0,0,1,1,3,3,4,4,5,5,6,6,7,7,8,8,9,9,10,10,11,11,12,12,13,13,14,14,15,15,16,16,17,17,18,18,21,21,22,22,23,23,25,25,26,26,27,27,28,28,29,29,30,30,31,31,32,32],"right_children":[2,4,-1,6,8,10,12,14,16,18,20,22,24,26,28,30,32,34,36,-1,-1,38,40,42,-1,44,46,48,50,52,54,56,58,-1,-1,-1,-1,-1,-1,-1,-1,-1,-1,-1,-1,-1,-1,-1,-1,-1,-1,-1,-1,-1,-1,-1,-1,-1,-1],"split_conditions":[1E0,1.98E2,-2.8179505E-1,1.7723E4,2.4385E4,1.7334E4,2E0,2.234E4,2.4823E4,1.82E2,6E0,3E0,1.9E1,2.1267E4,2.293E4,7.33E2,2.5473E4,2E0,5.81E2,5.0517E-2,5.3362876E-1,9E0,2.6005E4,6.86E2,7.079865E-2,2.0975E4,2.179E4,1E0,2.3468E4,4E0,2.056E3,1E0,2.5855E4,-1.0854246E-1,4.0620446E-2,5.8472943E-2,-2.7987042E-1,-1.6447002E-1,1.7273626E-1,-2.510212E-1,8.595664E-3,4.2400975E-2,-2.765026E-1,4.884659E-3,3.6620724E-1,-2.6200977E-1,-3.4629893E-2,-1.0051604E-1,3.3464247E-1,-1.1833257E-1,1.2610576E-1,-2.5056642E-1,1.3652979E-1,-1.5549031E-1,-5.932206E-1,3.4177715E-1,4.1662186E-2,-2.7029735E-1,-1.166014E-2],"split_indices":[11,8,0,3,3,3,2,3,3,8,0,7,9,3,3,8,3,10,6,0,0,9,3,6,0,3,3,7,3,7,6,2,3,0,0,0,0,0,0,0,0,0,0,0,0,0,0,0,0,0,0,0,0,0,0,0,0,0,0],"split_type":[0,0,0,0,0,0,0,0,0,0,0,0,0,0,0,0,0,0,0,0,0,0,0,0,0,0,0,0,0,0,0,0,0,0,0,0,0,0,0,0,0,0,0,0,0,0,0,0,0,0,0,0,0,0,0,0,0,0,0],"sum_hessian":[2.104636E3,2.0893677E3,1.5268212E1,1.348309E2,1.9545369E3,9.5975E1,3.88559E1,1.574435E3,3.8010178E2,9.3325645E1,2.649358E0,2.324297E1,1.5612928E1,1.4547695E3,1.19665565E2,1.8554195E1,3.6154758E2,8.10237E1,1.23019495E1,1.2626112E0,1.3867469E0,1.3018118E1,1.0224853E1,1.4136877E1,1.4760513E0,1.3976415E3,5.712803E1,3.5637356E1,8.402821E1,1.1607108E1,6.9470882E0,2.927074E1,3.3227682E2,2.9391996E1,5.1631695E1,3.0530648E0,9.248884E0,6.650265E0,6.3678527E0,7.4784346E0,2.7464182E0,1.5232142E0,1.2613663E1,1.3760328E3,2.1608599E1,2.7537348E1,2.959068E1,7.2901807E0,2.8347176E1,2.658109E1,5.744712E1,8.072664E0,3.534444E0,1.9437608E0,5.0033274E0,7.219118E0,2.2051622E1,1.4999904E1,3.1727692E2],"tree_param":{"num_deleted":"0","num_feature":"13","num_nodes":"59","size_leaf_vector":"1"}},{"base_weights":[-5.3427545E-3,1.6359836E-4,-2.7621958E-1,1.7126795E-2,-1.486195E-1,3.8447055E-1,8.717713E-3,-7.256235E-1,-4.721103E-2,5.097056E-2,2.9110748E-1,-1.8898187E-2,1.1207974E-1,3.348342E-2,-8.111698E-1,-2.9293296E-1,8.4390365E-2,-1.9769491E-1,4.4114414E-1,7.789432E-2,-8.922165E-2,1.4318319E-1,-4.0523282E-1,-1.2818982E-1,1.7553607E-1,-8.922976E-1,-2.6787144E-1,-7.600038E-1,-1.1283642E-1,2.2338653E-1,-4.5318404E-1,-1.0145931E-1,2.4140851E-1,3.3381712E-1,-1.151356E-2,3.0628944E-2,-1.2095925E-1,-3.352157E-2,9.6089624E-2,3.7808325E-2,3.2781243E-1,-3.2892857E-2,-3.3148876E-1,-2.9868388E-1,-1.3464475E-1,-2.4569534E-1,1.8499431E-1,-3.4498993E-1,-2.9257376E-2,5.8632314E-2,-1.5173218E-1,-2.9059904E-2,1.3239408E-1,1.6991228E-1,-1.6963735E-1],"categories":[],"categories_nodes":[],"categories_segments":[],"categories_sizes":[],"default_left":[0,0,0,0,0,0,0,0,0,0,0,0,0,0,0,0,0,0,0,0,0,0,0,0,0,0,0,0,0,0,0,0,0,0,0,0,0,0,0,0,0,0,0,0,0,0,0,0,0,0,0,0,0,0,0],"id":20,"left_children":[1,3,-1,5,7,9,11,13,15,17,-1,19,21,23,25,27,29,31,33,35,37,39,41,-1,-1,43,45,47,49,51,53,-1,-1,-1,-1,-1,-1,-1,-1,-1,-1,-1,-1,-1,-1,-1,-1,-1,-1,-1,-1,-1,-1,-1,-1],"loss_changes":[1.0557037E1,5.2594647E0,0E0,5.7750707E0,1.244525E1,8.125841E0,5.2251368E0,2.0929222E0,5.9251966E0,2.776531E0,0E0,9.841705E0,6.267948E0,1.3130624E0,1.0228348E0,5.2863073E0,9.038044E0,2.753679E0,3.616921E0,7.126608E0,7.756754E0,5.8046184E0,4.460191E0,0E0,0E0,6.7479706E-1,3.014784E0,4.434119E0,5.8243184E0,6.7218957E0,3.1707416E0,0E0,0E0,0E0,0E0,0E0,0E0,0E0,0E0,0E0,0E0,0E0,0E0,0E0,0E0,0E0,0E0,0E0,0E0,0E0,0E0,0E0,0E0,0E0,0E0],"parents":[2147483647,0,0,1,1,3,3,4,4,5,5,6,6,7,7,8,8,9,9,11,11,12,12,13,13,14,14,15,15,16,16,17,17,18,18,19,19,20,20,21,21,22,22,25,25,26,26,27,27,28,28,29,29,30,30],"right_children":[2,4,-1,6,8,10,12,14,16,18,-1,20,22,24,26,28,30,32,34,36,38,40,42,-1,-1,44,46,48,50,52,54,-1,-1,-1,-1,-1,-1,-1,-1,-1,-1,-1,-1,-1,-1,-1,-1,-1,-1,-1,-1,-1,-1,-1,-1],"split_conditions":[1E0,5E0,-2.7621958E-1,1.285E3,5.54E2,1.3E1,3.351E3,1.285E3,5E0,8E0,2.9110748E-1,1E1,4.379E3,1.3E1,2.6E1,1E1,2.3296364E2,5.81E2,7E0,3.1973E4,2.5E1,2.9E1,4E0,-1.2818982E-1,1.7553607E-1,5.15E2,3E0,2.0980588E2,2.814E3,3E0,7E0,-1.0145931E-1,2.4140851E-1,3.3381712E-1,-1.151356E-2,3.0628944E-2,-1.2095925E-1,-3.352157E-2,9.6089624E-2,3.7808325E-2,3.2781243E-1,-3.2892857E-2,-3.3148876E-1,-2.9868388E-1,-1.3464475E-1,-2.4569534E-1,1.8499431E-1,-3.4498993E-1,-2.9257376E-2,5.8632314E-2,-1.5173218E-1,-2.9059904E-2,1.3239408E-1,1.6991228E-1,-1.6963735E-1],"split_indices":[11,7,0,3,8,9,6,3,0,0,0,9,6,9,9,9,12,6,10,3,9,0,7,0,0,8,5,12,6,5,0,0,0,0,0,0,0,0,0,0,0,0,0,0,0,0,0,0,0,0,0,0,0,0,0],"split_type":[0,0,0,0,0,0,0,0,0,0,0,0,0,0,0,0,0,0,0,0,0,0,0,0,0,0,0,0,0,0,0,0,0,0,0,0,0,0,0,0,0,0,0,0,0,0,0,0,0,0,0,0,0,0,0],"sum_hessian":[2.0934314E3,2.0819077E3,1.1523508E1,1.8696306E3,2.1227715E2,4.084018E1,1.8287904E3,3.0810886E1,1.8146626E2,2.6718452E1,1.4121728E1,1.443846E3,3.849445E2,3.1821594E0,2.7628727E1,6.2863544E1,1.1860272E2,1.66197E1,1.0098753E1,6.0753424E2,8.363117E2,3.6379453E2,2.1149952E1,1.8566744E0,1.325485E0,2.3480186E1,4.148541E0,1.6597868E1,4.626568E1,9.4701096E1,2.3901623E1,1.5157688E1,1.4620109E0,3.6568255E0,6.4419274E0,5.791851E2,2.8349127E1,7.9341406E2,4.2897633E1,3.58451E2,5.343551E0,1.5682018E1,5.4679327E0,1.8033936E1,5.4462504E0,2.6016405E0,1.5469006E0,9.984644E0,6.6132245E0,2.6207394E1,2.0058285E1,3.8572582E1,5.6128513E1,1.9697497E0,2.1931873E1],"tree_param":{"num_deleted":"0","num_feature":"13","num_nodes":"55","size_leaf_vector":"1"}},{"base_weights":[-4.494751E-3,-2.892592E-4,-2.6934388E-1,4.843033E-1,-5.0196815E-3,6.763996E-1,-5.943916E-1,-5.4849587E-2,3.2003336E-2,1.8722081E-1,9.450939E-1,-3.935603E-1,1.8197596E-1,1.334963E-2,-9.161787E-1,8.829105E-3,2.9329753E-1,-2.818779E-1,7.313818E-1,-8.2924984E-2,1.1066668E0,4.9942207E-2,-1.4310959E-1,-1.0275327E0,-1.1115536E-1,1.3353148E-2,-8.9683294E-1,6.1928056E-2,-2.050149E-1,2.8727353E-1,8.127406E-2,3.7031165E-1,2.520836E-2,2.9910684E-2,-4.8357423E-2,-2.0563787E-1,-7.36667E-3,6.8150675E-3,-3.391273E-1,4.4547614E-2,-1.7369002E-1,-3.9702587E-4,8.415556E-2,-3.2600963E-1,-4.335313E-3],"categories":[],"categories_nodes":[],"categories_segments":[],"categories_sizes":[],"default_left":[0,0,0,0,0,0,0,0,0,0,0,0,0,0,0,0,0,0,0,0,0,0,0,0,0,0,0,0,0,0,0,0,0,0,0,0,0,0,0,0,0,0,0,0,0],"id":21,"left_children":[1,3,-1,5,7,9,11,13,15,17,19,-1,-1,21,23,25,-1,27,29,-1,31,33,35,37,39,41,43,-1,-1,-1,-1,-1,-1,-1,-1,-1,-1,-1,-1,-1,-1,-1,-1,-1,-1],"loss_changes":[7.813236E0,4.7499776E0,0E0,4.5528946E0,3.7874458E0,2.1194978E0,3.8635955E0,5.1416836E1,2.5805637E1,2.1056695E0,2.4828415E0,0E0,0E0,4.6553135E0,5.6425858E0,4.7269692E0,0E0,1.0660833E0,1.2837625E-1,0E0,1.1945934E0,6.9366474E0,9.8945E0,6.1089783E0,1.1700518E0,4.4940543E0,9.4502497E-1,0E0,0E0,0E0,0E0,0E0,0E0,0E0,0E0,0E0,0E0,0E0,0E0,0E0,0E0,0E0,0E0,0E0,0E0],"parents":[2147483647,0,0,1,1,3,3,4,4,5,5,6,6,7,7,8,8,9,9,10,10,13,13,14,14,15,15,17,17,18,18,20,20,21,21,22,22,23,23,24,24,25,25,26,26],"right_children":[2,4,-1,6,8,10,12,14,16,18,20,-1,-1,22,24,26,-1,28,30,-1,32,34,36,38,40,42,44,-1,-1,-1,-1,-1,-1,-1,-1,-1,-1,-1,-1,-1,-1,-1,-1,-1,-1],"split_conditions":[1E0,1.7032176E2,-2.6934388E-1,2.9146E4,3E0,1E0,1.011E3,2E0,2.6E1,1.7E1,1.47E2,-3.935603E-1,1.8197596E-1,2.8301E4,1.083E3,3.6E1,2.9329753E-1,5.864E3,2.5E1,-8.2924984E-2,3.3E1,2.3E1,2.9306E4,1.426E3,9E0,3.859E3,2.814E3,6.1928056E-2,-2.050149E-1,2.8727353E-1,8.127406E-2,3.7031165E-1,2.520836E-2,2.9910684E-2,-4.8357423E-2,-2.0563787E-1,-7.36667E-3,6.8150675E-3,-3.391273E-1,4.4547614E-2,-1.7369002E-1,-3.9702587E-4,8.415556E-2,-3.2600963E-1,-4.335313E-3],"split_indices":[11,12,0,3,5,4,8,5,9,9,6,0,0,3,8,0,0,3,9,0,9,9,3,3,0,6,6,0,0,0,0,0,0,0,0,0,0,0,0,0,0,0,0,0,0],"split_type":[0,0,0,0,0,0,0,0,0,0,0,0,0,0,0,0,0,0,0,0,0,0,0,0,0,0,0,0,0,0,0,0,0,0,0,0,0,0,0,0,0,0,0,0,0],"sum_hessian":[2.0788042E3,2.0700593E3,8.744936E0,1.903177E1,2.0510276E3,1.6471447E1,2.5603235E0,8.7409155E2,1.176936E3,6.4413157E0,1.0030131E1,1.5449955E0,1.0153278E0,8.1087195E2,6.3219566E1,1.1497692E3,2.7166918E1,3.7180948E0,2.7232206E0,1.0886936E0,8.941438E0,6.577246E2,1.5314738E2,5.5294605E1,7.9249644E0,1.1450347E3,4.7345223E0,1.8969358E0,1.821159E0,1.1022065E0,1.6210142E0,7.7647443E0,1.1766931E0,5.3270435E2,1.2502023E2,2.6614052E1,1.2653333E2,5.003312E0,5.029129E1,5.535307E0,2.389657E0,1.0863516E3,5.8683014E1,3.7056172E0,1.028905E0],"tree_param":{"num_deleted":"0","num_feature":"13","num_nodes":"45","size_leaf_vector":"1"}},{"base_weights":[-4.0865187E-3,-8.4503216E-4,-2.6104125E-1,3.5279125E-2,-5.8926128E-2,5.142679E-3,1.0966846E0,-8.4460324E-1,-1.7093921E-2,-3.0168502E-2,2.3642555E-1,1.2719696E0,3.4726045E-1,-9.019004E-1,1.5948923E-2,2.9876307E-1,-5.5256452E-2,2.0494213E-2,-4.5947835E-1,6.6041285E-1,-3.278509E-2,7.443583E-1,1.4675357E0,-4.5834094E-1,9.6167684E-1,-2.3319668E-1,-9.721005E-1,1.6940008E-1,-1.5444717E-1,-1.5439746E-1,1.1180775E0,-1.003475E0,-4.244297E-3,-3.368313E-3,2.109987E-1,-3.012917E-1,-3.225308E-2,1.9619312E-2,2.9789674E-1,-2.2433679E-1,1.0380536E-1,2.7224147E-1,-9.609902E-2,4.5665848E-1,1.16323836E-1,-2.348064E-1,2.3429384E-2,-4.2234145E-2,3.9753658E-1,-2.320129E-1,2.5058055E-1,-2.0090471E-1,-3.7001637E-1,-2.3186268E-1,5.9593536E-2,5.610917E-1,1.1912028E-1,-3.47892E-1,-3.5699114E-2,2.647242E-1,-9.307757E-3],"categories":[],"categories_nodes":[],"categories_segments":[],"categories_sizes":[],"default_left":[0,0,0,0,0,0,0,0,0,0,0,0,0,0,0,0,0,0,0,0,0,0,0,0,0,0,0,0,0,0,0,0,0,0,0,0,0,0,0,0,0,0,0,0,0,0,0,0,0,0,0,0,0,0,0,0,0,0,0,0,0],"id":22,"left_children":[1,3,-1,5,7,9,11,13,15,17,19,21,23,25,27,29,31,33,35,37,39,41,43,45,47,49,51,-1,-1,53,55,57,59,-1,-1,-1,-1,-1,-1,-1,-1,-1,-1,-1,-1,-1,-1,-1,-1,-1,-1,-1,-1,-1,-1,-1,-1,-1,-1,-1,-1],"loss_changes":[5.783099E0,4.3108163E0,0E0,4.051395E1,2.58797E1,1.0075113E1,4.1519356E0,1.9771557E0,9.045466E0,2.3290276E1,1.8672321E1,1.7931328E0,4.4026413E0,1.5261345E0,1.3006216E0,3.0209955E1,3.2362816E1,2.0766745E1,2.1565975E1,1.2501928E1,2.7585451E1,1.9564385E0,5.531883E-1,7.815406E-1,2.1353445E0,3.4527519E0,1.8192558E0,0E0,0E0,1.1719336E1,1.4949333E1,4.579872E0,1.5129656E1,0E0,0E0,0E0,0E0,0E0,0E0,0E0,0E0,0E0,0E0,0E0,0E0,0E0,0E0,0E0,0E0,0E0,0E0,0E0,0E0,0E0,0E0,0E0,0E0,0E0,0E0,0E0,0E0],"parents":[2147483647,0,0,1,1,3,3,4,4,5,5,6,6,7,7,8,8,9,9,10,10,11,11,12,12,13,13,14,14,15,15,16,16,17,17,18,18,19,19,20,20,21,21,22,22,23,23,24,24,25,25,26,26,29,29,30,30,31,31,32,32],"right_children":[2,4,-1,6,8,10,12,14,16,18,20,22,24,26,28,30,32,34,36,38,40,42,44,46,48,50,52,-1,-1,54,56,58,60,-1,-1,-1,-1,-1,-1,-1,-1,-1,-1,-1,-1,-1,-1,-1,-1,-1,-1,-1,-1,-1,-1,-1,-1,-1,-1,-1,-1],"split_conditions":[1E0,1.785E4,-2.6104125E-1,1.7454E4,1.8302E4,1.5302E4,1.7723E4,1.3E1,1.9721E4,1.3608E4,1.5919E4,2.0356401E2,3E0,2.21E2,1.8003E4,1.9293E4,2.0237E4,1.3051E4,1.4214E4,5.58E2,1.6445E4,2.0208011E2,1.6E1,3E0,5.53E2,1.98E2,2.299E3,1.6940008E-1,-1.5444717E-1,2E0,6.31E2,3.859E3,2.0535E4,-3.368313E-3,2.109987E-1,-3.012917E-1,-3.225308E-2,1.9619312E-2,2.9789674E-1,-2.2433679E-1,1.0380536E-1,2.7224147E-1,-9.609902E-2,4.5665848E-1,1.16323836E-1,-2.348064E-1,2.3429384E-2,-4.2234145E-2,3.9753658E-1,-2.320129E-1,2.5058055E-1,-2.0090471E-1,-3.7001637E-1,-2.3186268E-1,5.9593536E-2,5.610917E-1,1.1912028E-1,-3.47892E-1,-3.5699114E-2,2.647242E-1,-9.307757E-3],"split_indices":[11,3,0,3,3,3,3,10,3,3,3,12,7,8,3,3,3,3,3,8,3,12,4,2,8,8,6,0,0,7,8,6,3,0,0,0,0,0,0,0,0,0,0,0,0,0,0,0,0,0,0,0,0,0,0,0,0,0,0,0,0],"split_type":[0,0,0,0,0,0,0,0,0,0,0,0,0,0,0,0,0,0,0,0,0,0,0,0,0,0,0,0,0,0,0,0,0,0,0,0,0,0,0,0,0,0,0,0,0,0,0,0,0,0,0,0,0,0,0,0,0,0,0,0,0],"sum_hessian":[2.0592896E3,2.052608E3,6.6815987E0,1.2657523E3,7.868556E2,1.2317831E3,3.396913E1,3.8806976E1,7.480486E2,1.0693842E3,1.6239899E2,2.6964954E1,7.004177E0,3.6339382E1,2.4675927E0,7.9901886E1,6.681467E2,9.573588E2,1.1202534E2,6.2504993E1,9.989399E1,8.591745E0,1.8373209E1,3.1404936E0,3.8636837E0,3.8630536E0,3.247633E1,1.1818877E0,1.285705E0,5.1969337E1,2.7932545E1,3.3156647E1,6.3499005E2,9.1579785E2,4.156095E1,4.3239525E1,6.878581E1,2.2839418E1,3.9665573E1,3.425755E1,6.563644E1,7.5783806E0,1.0133644E0,1.7097992E1,1.2752174E0,1.6710703E0,1.4694234E0,1.1098292E0,2.7538545E0,2.7492876E0,1.1137661E0,1.6704863E1,1.5771467E1,1.8453087E1,3.351625E1,1.2890208E1,1.5042336E1,2.7916552E1,5.240096E0,1.768085E1,6.173092E2],"tree_param":{"num_deleted":"0","num_feature":"13","num_nodes":"61","size_leaf_vector":"1"}},{"base_weights":[-4.612083E-3,-2.0994972E-3,-2.5126946E-1,5.5598706E-1,-5.4692705E-3,4.5410156E-2,3.0342227E-1,-1.38768805E-2,2.1596578E-1,6.284861E-1,-8.1158656E-1,-4.9455753E-3,-2.917639E-1,6.631483E-1,8.261459E-2,-5.762354E-2,3.1408077E-1,-2.9209882E-1,-7.537545E-2,-8.225581E-3,9.9161613E-1,2.3312706E-1,-4.786887E-1,9.691251E-1,8.5269324E-2,-2.4447869E-1,4.5991322E-1,-1.712458E-3,-2.0603321E-1,-1.2615483E-1,4.442247E-1,-7.9580024E-2,3.6628407E-1,-1.7149244E-1,3.1107884E-2,3.1508607E-1,2.8453963E-2,-2.2974582E-1,1.2217861E-1,1.8307382E-1,-1.0914483E-1,3.508645E-1,9.8850764E-2],"categories":[],"categories_nodes":[],"categories_segments":[],"categories_sizes":[],"default_left":[0,0,0,0,0,0,0,0,0,0,0,0,0,0,0,0,0,0,0,0,0,0,0,0,0,0,0,0,0,0,0,0,0,0,0,0,0,0,0,0,0,0,0],"id":23,"left_children":[1,3,-1,5,7,9,-1,11,13,15,17,19,21,23,25,-1,-1,-1,-1,27,29,31,33,35,37,39,41,-1,-1,-1,-1,-1,-1,-1,-1,-1,-1,-1,-1,-1,-1,-1,-1],"loss_changes":[4.277957E0,3.8390644E0,0E0,2.803009E0,3.7795503E0,3.9196124E0,0E0,4.851268E0,4.373683E0,1.7888619E0,4.5899868E-2,6.203629E0,6.083628E0,2.9084463E0,7.313111E0,0E0,0E0,0E0,0E0,3.2247937E0,4.923143E0,8.524255E0,2.506731E0,6.7833996E-1,2.217209E0,3.4764066E0,2.15414E0,0E0,0E0,0E0,0E0,0E0,0E0,0E0,0E0,0E0,0E0,0E0,0E0,0E0,0E0,0E0,0E0],"parents":[2147483647,0,0,1,1,3,3,4,4,5,5,7,7,8,8,9,9,10,10,11,11,12,12,13,13,14,14,19,19,20,20,21,21,22,22,23,23,24,24,25,25,26,26],"right_children":[2,4,-1,6,8,10,-1,12,14,16,18,20,22,24,26,-1,-1,-1,-1,28,30,32,34,36,38,40,42,-1,-1,-1,-1,-1,-1,-1,-1,-1,-1,-1,-1,-1,-1,-1,-1],"split_conditions":[1E0,3.31E2,-2.5126946E-1,1.2E1,1.136E3,9E0,3.0342227E-1,3.2315E4,1.274E4,2E0,2.1750441E2,3.2145E4,5.58E2,2.0886086E2,3.632E3,-5.762354E-2,3.1408077E-1,-2.9209882E-1,-7.537545E-2,3.1973E4,1E0,3.3471E4,4E0,3.165E3,3E0,1E0,1.1E1,-1.712458E-3,-2.0603321E-1,-1.2615483E-1,4.442247E-1,-7.9580024E-2,3.6628407E-1,-1.7149244E-1,3.1107884E-2,3.1508607E-1,2.8453963E-2,-2.2974582E-1,1.2217861E-1,1.8307382E-1,-1.0914483E-1,3.508645E-1,9.8850764E-2],"split_indices":[11,3,0,9,8,9,0,3,3,7,12,3,8,12,6,0,0,0,0,3,1,3,2,6,5,7,9,0,0,0,0,0,0,0,0,0,0,0,0,0,0,0,0],"split_type":[0,0,0,0,0,0,0,0,0,0,0,0,0,0,0,0,0,0,0,0,0,0,0,0,0,0,0,0,0,0,0,0,0,0,0,0,0,0,0,0,0,0,0],"sum_hessian":[2.0439072E3,2.0387599E3,5.14736E0,1.1252063E1,2.0275078E3,5.8232565E0,5.428806E0,1.954245E3,7.3262886E1,3.6241384E0,2.1991184E0,1.8943773E3,5.9867603E1,1.591621E1,5.734668E1,1.4066759E0,2.2174625E0,1.1335863E0,1.065532E0,1.8891512E3,5.226059E0,1.565649E1,4.4211113E1,9.963613E0,5.952598E0,3.0905584E1,2.6441095E1,1.8831732E3,5.9780498E0,1.3805826E0,3.8454764E0,1.0892341E1,4.7641497E0,3.814182E1,6.069296E0,8.933017E0,1.0305954E0,1.2555534E0,4.6970444E0,3.2824223E0,2.7623161E1,2.8677773E0,2.3573317E1],"tree_param":{"num_deleted":"0","num_feature":"13","num_nodes":"43","size_leaf_vector":"1"}},{"base_weights":[-2.7942418E-3,-1.5977761E-1,7.7156853E-3,-1.9029978E-1,6.9850606E-1,-1.0415347E-2,1.019619E-1,-6.248436E-2,-3.7644312E-1,3.243538E-1,-2.0089678E-2,2.1828376E-2,-9.023706E-2,4.8326832E-1,5.8032997E-2,-2.6867658E-1,6.105038E-1,-4.4988525E-1,2.2588643E-1,6.737438E-2,-5.050798E-2,-1.2314846E-1,2.4574375E-1,6.027694E-1,-5.810541E-1,1.11844696E-1,-2.034526E-1,-4.9243486E-1,-9.4284795E-2,4.0010843E-2,1.4357241E0,7.6367706E-2,-4.776934E-1,4.0618393E-1,-3.4127828E-1,2.3746838E-1,1.40886735E-2,1.359823E-2,-2.0186411E-1,-6.2974155E-2,-2.3572677E-1,3.559192E-1,-2.7860257E-1,1.0223476E0,3.5905063E-1,-3.3788538E-1,1.14354216E-1,1.9103296E-1,-1.1575281E-1,-1.1247759E0,-4.2659894E-2,8.2218334E-2,-2.1242824E-1,6.389723E-2,-1.900041E-1,-1.4666511E-1,1.8731052E-1,5.7050395E-1,1.3224985E-1,-1.5733291E-1,7.6849964E-3,-2.2704288E-1,1.446433E-1,1.9762589E-1,4.4554792E-2,-1.24816336E-1,1.1178823E-2,6.475511E-2,-2.130674E-2,-3.5978895E-1,-5.0651427E-2,-6.189857E-2,1.840255E-2,-1.3436785E-1,-1.6988667E-2,2.2889072E-2,1.7164177E-1,-1.6992393E-1,2.4143344E-1,-9.168034E-2,3.6061117E-1,-2.2278829E-1,1.607758E-1,4.3786813E-2,2.3601775E-1,-6.429575E-2,3.1024674E-1,-4.4762298E-1,3.473129E-2,-8.099641E-2,1.2080071E-1],"categories":[],"categories_nodes":[],"categories_segments":[],"categories_sizes":[],"default_left":[0,0,0,0,0,0,0,0,0,0,0,0,0,0,0,0,0,0,0,0,0,0,0,0,0,0,0,0,0,0,0,0,0,0,0,0,0,0,0,0,0,0,0,0,0,0,0,0,0,0,0,0,0,0,0,0,0,0,0,0,0,0,0,0,0,0,0,0,0,0,0,0,0,0,0,0,0,0,0,0,0,0,0,0,0,0,0,0,0,0,0],"id":24,"left_children":[1,3,5,7,9,11,13,15,17,-1,-1,19,21,23,25,27,29,31,33,35,37,39,41,43,45,47,49,51,53,55,57,-1,59,-1,61,63,65,67,69,71,73,75,77,79,81,-1,-1,83,85,87,89,-1,-1,-1,-1,-1,-1,-1,-1,-1,-1,-1,-1,-1,-1,-1,-1,-1,-1,-1,-1,-1,-1,-1,-1,-1,-1,-1,-1,-1,-1,-1,-1,-1,-1,-1,-1,-1,-1,-1,-1],"loss_changes":[3.36221E0,3.4827118E0,3.2652245E0,2.9329991E0,1.4214022E0,4.1275306E0,5.135934E0,1.0554032E1,2.3307166E0,0E0,0E0,3.7676592E0,5.1321926E0,4.383548E0,3.9285643E0,2.2171755E0,8.353477E0,1.007987E0,4.3917775E0,6.355014E0,4.2915444E0,2.836452E0,2.4965098E0,2.5985575E0,2.3758805E0,4.1827326E0,7.0226974E0,4.354952E0,5.739776E0,3.887878E0,2.5336905E0,0E0,1.0458574E0,0E0,2.0366266E0,6.170928E0,5.350933E0,5.345516E0,4.1317496E0,4.925125E0,5.5317364E0,2.0562205E0,2.8774862E0,2.7809086E0,4.272905E0,0E0,0E0,4.494043E0,7.046003E0,3.386322E0,4.3278556E0,0E0,0E0,0E0,0E0,0E0,0E0,0E0,0E0,0E0,0E0,0E0,0E0,0E0,0E0,0E0,0E0,0E0,0E0,0E0,0E0,0E0,0E0,0E0,0E0,0E0,0E0,0E0,0E0,0E0,0E0,0E0,0E0,0E0,0E0,0E0,0E0,0E0,0E0,0E0,0E0],"parents":[2147483647,0,0,1,1,2,2,3,3,4,4,5,5,6,6,7,7,8,8,11,11,12,12,13,13,14,14,15,15,16,16,17,17,18,18,19,19,20,20,21,21,22,22,23,23,24,24,25,25,26,26,27,27,28,28,29,29,30,30,32,32,34,34,35,35,36,36,37,37,38,38,39,39,40,40,41,41,42,42,43,43,44,44,47,47,48,48,49,49,50,50],"right_children":[2,4,6,8,10,12,14,16,18,-1,-1,20,22,24,26,28,30,32,34,36,38,40,42,44,46,48,50,52,54,56,58,-1,60,-1,62,64,66,68,70,72,74,76,78,80,82,-1,-1,84,86,88,90,-1,-1,-1,-1,-1,-1,-1,-1,-1,-1,-1,-1,-1,-1,-1,-1,-1,-1,-1,-1,-1,-1,-1,-1,-1,-1,-1,-1,-1,-1,-1,-1,-1,-1,-1,-1,-1,-1,-1,-1],"split_conditions":[1.98E2,3.1E1,4E0,3E0,4E0,2.1662408E2,2.064234E2,2E0,1.4E1,3.243538E-1,-2.0089678E-2,3E0,1.053E3,5E0,9.16E2,5E0,3E0,1.7032176E2,1.9E1,1.983767E2,8.14E2,8E0,2.4224557E2,6.71E2,1.2E1,2.3432518E2,9.37E2,1.9334622E2,6E0,5E0,1.3202E4,7.6367706E-2,2.6005E4,4.0618393E-1,1.8E1,4.89E2,1.9975778E2,9E0,8.15E2,1E0,1.1E1,2.724E3,2.9762E4,4.6E2,7.52E2,-3.3788538E-1,1.14354216E-1,1.1E1,4.292E3,9E0,1E1,8.2218334E-2,-2.1242824E-1,6.389723E-2,-1.900041E-1,-1.4666511E-1,1.8731052E-1,5.7050395E-1,1.3224985E-1,-1.5733291E-1,7.6849964E-3,-2.2704288E-1,1.446433E-1,1.9762589E-1,4.4554792E-2,-1.24816336E-1,1.1178823E-2,6.475511E-2,-2.130674E-2,-3.5978895E-1,-5.0651427E-2,-6.189857E-2,1.840255E-2,-1.3436785E-1,-1.6988667E-2,2.2889072E-2,1.7164177E-1,-1.6992393E-1,2.4143344E-1,-9.168034E-2,3.6061117E-1,-2.2278829E-1,1.607758E-1,4.3786813E-2,2.3601775E-1,-6.429575E-2,3.1024674E-1,-4.4762298E-1,3.473129E-2,-8.099641E-2,1.2080071E-1],"split_indices":[8,9,2,7,4,12,12,7,4,0,0,2,8,7,8,0,5,12,0,12,8,10,12,8,9,12,8,12,10,4,3,0,3,0,9,8,12,9,8,1,10,6,3,6,8,0,0,4,6,4,0,0,0,0,0,0,0,0,0,0,0,0,0,0,0,0,0,0,0,0,0,0,0,0,0,0,0,0,0,0,0,0,0,0,0,0,0,0,0,0,0],"split_type":[0,0,0,0,0,0,0,0,0,0,0,0,0,0,0,0,0,0,0,0,0,0,0,0,0,0,0,0,0,0,0,0,0,0,0,0,0,0,0,0,0,0,0,0,0,0,0,0,0,0,0,0,0,0,0,0,0,0,0,0,0,0,0,0,0,0,0,0,0,0,0,0,0,0,0,0,0,0,0,0,0,0,0,0,0,0,0,0,0,0,0],"sum_hessian":[2.0360991E3,1.2687066E2,1.9092285E3,1.23265396E2,3.6052675E0,1.6019381E3,3.0729044E2,7.387486E1,4.939053E1,2.1286705E0,1.476597E0,1.1415424E3,4.6039578E2,3.0711449E1,2.7657898E2,5.700903E1,1.6865833E1,4.424841E1,5.142123E0,7.005287E2,4.410136E2,4.1989767E2,4.0498116E1,2.8001163E1,2.710284E0,2.2984993E2,4.6729053E1,2.4171446E1,3.2837585E1,1.0591904E1,6.27393E0,1.3707243E0,4.287768E1,1.2562639E0,3.8858595E0,1.6628181E2,5.342469E2,3.1043878E2,1.3057481E2,2.7465237E2,1.4524527E2,3.3731647E1,6.7664676E0,9.11474E0,1.8886423E1,1.6211847E0,1.0890993E0,1.7063971E2,5.9210224E1,6.0526853E0,4.067637E1,5.248045E0,1.89234E1,2.1300682E1,1.1536902E1,5.6455607E0,4.946343E0,3.6520529E0,2.621877E0,3.9195084E1,3.6825986E0,2.6363513E0,1.2495083E0,2.7872086E1,1.3840973E2,2.6444607E1,5.0780228E2,9.1114655E1,2.1932414E2,3.0531044E0,1.27521706E2,1.2725229E2,1.474001E2,6.579785E1,7.9447426E1,1.5299165E1,1.8432482E1,5.7232194E0,1.0432485E0,1.0028349E0,8.111905E0,2.1701648E0,1.6716259E1,1.5979297E2,1.0846742E1,5.5285E1,3.9252255E0,4.513556E0,1.5391289E0,2.7190235E1,1.3486133E1],"tree_param":{"num_deleted":"0","num_feature":"13","num_nodes":"91","size_leaf_vector":"1"}},{"base_weights":[-2.2258954E-3,-1.6798665E-4,-2.4209733E-1,3.8910906E-3,-3.530987E-1,-3.7844502E-3,2.6473448E-1,-1.3738665E-1,-7.73045E-1,4.525388E-1,-7.473543E-3,4.4071266E-1,2.0559844E-1,-2.5548837E-1,8.677462E-2,-8.9600676E-1,-3.5936907E-2,6.33007E-1,-1.7207201E-1,4.5720683E-3,-1.19355805E-1,-1.7149153E-1,4.090032E-1,6.6780126E-1,-3.4257552E-1,-3.0300623E-1,-7.139739E-2,2.960718E-2,3.18185E-1,3.6255633E-3,-7.237925E-2,-1.0724812E-1,1.4004332E-2,-1.2271682E-1,1.064897E-1,2.640274E-1,4.4685453E-2,4.3014437E-2,2.888965E-1,-2.6875177E-1,6.997474E-2],"categories":[],"categories_nodes":[],"categories_segments":[],"categories_sizes":[],"default_left":[0,0,0,0,0,0,0,0,0,0,0,0,0,0,0,0,0,0,0,0,0,0,0,0,0,0,0,0,0,0,0,0,0,0,0,0,0,0,0,0,0],"id":25,"left_children":[1,3,-1,5,7,9,11,13,15,17,19,-1,21,-1,23,25,-1,27,-1,29,31,33,35,37,39,-1,-1,-1,-1,-1,-1,-1,-1,-1,-1,-1,-1,-1,-1,-1,-1],"loss_changes":[3.360845E0,2.9026754E0,0E0,4.0116363E0,1.980789E0,3.2808714E0,3.776978E0,2.7054582E0,5.033021E-1,3.2573955E0,2.6046808E0,0E0,4.3468046E0,0E0,3.5760038E0,2.2802544E-1,0E0,3.040874E0,0E0,3.2267509E0,7.4443455E0,2.6767883E0,4.3422866E0,7.9705024E-1,2.877696E0,0E0,0E0,0E0,0E0,0E0,0E0,0E0,0E0,0E0,0E0,0E0,0E0,0E0,0E0,0E0,0E0],"parents":[2147483647,0,0,1,1,3,3,4,4,5,5,6,6,7,7,8,8,9,9,10,10,12,12,14,14,15,15,17,17,19,19,20,20,21,21,22,22,23,23,24,24],"right_children":[2,4,-1,6,8,10,12,14,16,18,20,-1,22,-1,24,26,-1,28,-1,30,32,34,36,38,40,-1,-1,-1,-1,-1,-1,-1,-1,-1,-1,-1,-1,-1,-1,-1,-1],"split_conditions":[1E0,4.379E3,-2.4209733E-1,4.353E3,4E0,1.7032176E2,3.85E2,5.15E2,3E0,1.5E1,5E0,4.4071266E-1,7.05E2,-2.5548837E-1,5E0,5E0,-3.5936907E-2,1E0,-1.7207201E-1,3.1973E4,7.33E2,2.2783163E2,9.16E2,6E0,1E1,-3.0300623E-1,-7.139739E-2,2.960718E-2,3.18185E-1,3.6255633E-3,-7.237925E-2,-1.0724812E-1,1.4004332E-2,-1.2271682E-1,1.064897E-1,2.640274E-1,4.4685453E-2,4.3014437E-2,2.888965E-1,-2.6875177E-1,6.997474E-2],"split_indices":[11,6,0,6,7,12,8,8,5,0,7,0,8,0,10,7,0,4,0,3,8,12,8,0,4,0,0,0,0,0,0,0,0,0,0,0,0,0,0,0,0],"split_type":[0,0,0,0,0,0,0,0,0,0,0,0,0,0,0,0,0,0,0,0,0,0,0,0,0,0,0,0,0,0,0,0,0,0,0,0,0,0,0,0,0],"sum_hessian":[2.0284142E3,2.0242382E3,4.17608E0,2.0021997E3,2.2038445E1,1.9459247E3,5.6275017E1,1.5436431E1,6.602013E0,1.462971E1,1.9312949E3,1.5180529E0,5.475696E1,3.0187297E0,1.2417702E1,5.2434416E0,1.3585715E0,1.2767345E1,1.8623649E0,1.7444418E3,1.868532E2,1.9241758E1,3.5515205E1,5.040784E0,7.376918E0,4.013138E0,1.2303035E0,6.2226605E0,6.5446844E0,1.6936326E3,5.0809235E1,7.628646E1,1.1056673E2,1.3412398E1,5.829361E0,1.17839985E1,2.3731205E1,2.3505688E0,2.6902149E0,3.478733E0,3.8981848E0],"tree_param":{"num_deleted":"0","num_feature":"13","num_nodes":"41","size_leaf_vector":"1"}},{"base_weights":[-1.8313556E-3,6.577549E-1,-3.969785E-3,2.727109E-1,2.7465937E-1,-2.3485345E-3,-2.2987498E-1,2.148399E-1,-1.1235433E-1,-4.4867657E-3,5.704995E-1,-2.2079974E-1,1.67625E-1,-2.1053617E-1,9.776691E-4,1.0967135E0,-1.7483845E-1,3.8858864E-3,-5.8249557E-1,3.5267878E-1,-2.017452E-3,2.7465656E-2,3.9226642E-1,-6.0540482E-2,1.6034536E-1,-2.3865002E-1,-1.5018301E-2,3.1683E-1,-8.438032E-2,-1.2604361E-2,7.1556713E-3],"categories":[],"categories_nodes":[],"categories_segments":[],"categories_sizes":[],"default_left":[0,0,0,0,0,0,0,0,0,0,0,0,0,0,0,0,0,0,0,0,0,0,0,0,0,0,0,0,0,0,0],"id":26,"left_children":[1,3,5,7,-1,9,-1,-1,11,13,15,-1,-1,17,19,21,-1,23,25,27,29,-1,-1,-1,-1,-1,-1,-1,-1,-1,-1],"loss_changes":[2.8539317E0,3.993311E-1,2.489653E0,7.7135885E-1,0E0,2.4678943E0,0E0,0E0,1.6794145E0,2.2590966E0,5.1862555E0,0E0,0E0,4.1364374E0,2.0604897E0,1.0442185E0,0E0,3.8047752E0,2.110579E0,7.6626406E0,2.0082066E0,0E0,0E0,0E0,0E0,0E0,0E0,0E0,0E0,0E0,0E0],"parents":[2147483647,0,0,1,1,2,2,3,3,5,5,8,8,9,9,10,10,13,13,14,14,15,15,17,17,18,18,19,19,20,20],"right_children":[2,4,6,8,-1,10,-1,-1,12,14,16,-1,-1,18,20,22,-1,24,26,28,30,-1,-1,-1,-1,-1,-1,-1,-1,-1,-1],"split_conditions":[1.74E2,5E0,1E0,9E0,2.7465937E-1,1.301E3,-2.2987498E-1,2.148399E-1,1.2E1,9.5E1,9E0,-2.2079974E-1,1.67625E-1,5.6E1,1.23E2,1.545E4,-1.7483845E-1,5.2E1,4E0,1.3608E4,2E0,2.7465656E-2,3.9226642E-1,-6.0540482E-2,1.6034536E-1,-2.3865002E-1,-1.5018301E-2,3.1683E-1,-8.438032E-2,-1.2604361E-2,7.1556713E-3],"split_indices":[3,0,11,9,0,8,0,0,9,8,4,0,0,8,8,3,0,8,10,3,7,0,0,0,0,0,0,0,0,0,0],"split_type":[0,0,0,0,0,0,0,0,0,0,0,0,0,0,0,0,0,0,0,0,0,0,0,0,0,0,0,0,0,0,0],"sum_hessian":[2.0205271E3,5.5387654E0,2.0149883E3,3.0463407E0,2.492425E0,2.0117128E3,3.2755167E0,1.0162762E0,2.0300643E0,2.0052202E3,6.492583E0,1.0021172E0,1.0279473E0,5.0835083E1,1.9543851E3,4.4920526E0,2.0005302E0,3.2873928E1,1.7961159E1,1.5517324E1,1.9388678E3,1.0275499E0,3.4645026E0,2.413689E1,8.737037E0,1.2475971E1,5.485187E0,7.0399485E0,8.477375E0,7.612604E2,1.1776074E3],"tree_param":{"num_deleted":"0","num_feature":"13","num_nodes":"31","size_leaf_vector":"1"}},{"base_weights":[-1.2242579E-3,7.0723526E-2,-1.8516047E-2,9.626397E-3,4.005313E-1,-1.2666638E-1,1.7029222E-2,3.199189E-2,-6.747397E-1,2.3765947E-1,6.8506694E-1,-2.9598054E-1,-6.134808E-3,1.7102925E-1,-2.1690475E-2,6.2387236E-3,7.611716E-1,-8.9591545E-1,1.6967328E-1,8.0903673E-1,1.0071456E-1,-1.6931155E-1,7.971531E-1,-2.3954917E-1,-7.612159E-1,-3.1807825E-2,6.7247194E-1,1.0941304E0,5.0457112E-2,-9.79524E-2,6.2370036E-2,6.591908E-2,-2.1635866E-1,-1.079507E-1,1.0406297E0,-4.1602874E-1,-4.250028E-1,-2.819838E-2,9.752499E-1,-5.351012E-1,2.7335647E-1,-1.7788889E-1,9.052698E-2,2.1262792E-1,2.8643468E-1,-3.0070114E-1,4.8372564E-1,-8.5283774E-1,1.108866E-1,3.636214E-2,-3.098885E-1,1.0768247E0,-2.2299238E-1,1.321174E0,6.959681E-1,2.0901936E-1,-4.5510516E-1,-6.8330966E-2,-8.2002735E-1,2.792258E-1,-1.0095285E-1,1.2631064E-4,1.065081E-1,-1.3084547E-1,-4.1138018E-3,3.3933485E-1,7.645854E-2,1.3795443E-1,-3.541467E-1,3.6280987E-1,-2.5468348E-2,-3.777688E-1,4.167833E-2,2.704648E-1,1.8864412E-2,2.1526206E-1,-1.2572095E-1,-3.1121635E-1,-8.243098E-2,-3.676081E-2,2.831608E-1,-2.9695618E-1,4.60947E-3,3.0108212E-2,-7.500155E-2,-2.034804E-1,-1.5340044E-2,9.209854E-3,3.787071E-1,5.5957925E-2,4.1865396E-1,-6.6542104E-2,3.198466E-1,-7.769631E-3,1.4000054E-1,1.01761185E-1,-1.689915E-1,-6.721179E-2,2.1032201E-2,-5.322844E-2,-3.073398E-1,1.7693456E-1,-1.5890116E-2,4.7972423E-1,-3.6843374E-2],"categories":[],"categories_nodes":[],"categories_segments":[],"categories_sizes":[],"default_left":[0,0,0,0,0,0,0,0,0,0,0,0,0,0,0,0,0,0,0,0,0,0,0,0,0,0,0,0,0,0,0,0,0,0,0,0,0,0,0,0,0,0,0,0,0,0,0,0,0,0,0,0,0,0,0,0,0,0,0,0,0,0,0,0,0,0,0,0,0,0,0,0,0,0,0,0,0,0,0,0,0,0,0,0,0,0,0,0,0,0,0,0,0,0,0,0,0,0,0,0,0,0,0,0,0],"id":27,"left_children":[1,3,5,7,9,11,13,15,17,19,21,23,25,27,29,31,33,35,-1,37,39,41,43,45,47,49,51,53,55,57,59,61,63,-1,65,-1,67,-1,69,71,73,-1,-1,75,-1,77,79,81,-1,83,85,87,-1,89,91,93,95,97,99,101,103,-1,-1,-1,-1,-1,-1,-1,-1,-1,-1,-1,-1,-1,-1,-1,-1,-1,-1,-1,-1,-1,-1,-1,-1,-1,-1,-1,-1,-1,-1,-1,-1,-1,-1,-1,-1,-1,-1,-1,-1,-1,-1,-1,-1],"loss_changes":[2.5115662E0,7.8784866E0,6.258807E0,5.088886E0,2.6694326E0,8.216682E0,7.313111E0,6.033351E0,3.3932405E0,3.0795693E0,2.2146568E0,4.213784E0,4.1376324E0,2.7368708E1,6.291275E0,4.1534996E0,3.8080993E0,1.5641623E0,0E0,1.2426462E0,3.8487597E0,8.461746E-1,1.582015E0,6.8149633E0,2.14439E0,4.344984E0,5.7567973E0,1.6494026E0,1.7649141E1,1.0947485E1,1.6567484E1,4.667017E0,2.938524E0,0E0,3.5378742E-1,0E0,4.6853952E0,0E0,1.7318764E0,3.8555686E0,3.538209E0,0E0,0E0,2.0234516E0,0E0,2.3827906E0,3.5019753E0,1.9939032E0,0E0,3.40638E0,4.265584E0,1.3475971E0,0E0,1.1722927E0,4.460508E0,1.0143124E1,4.7114573E0,1.06917095E1,2.4695272E0,2.0754736E1,1.0121914E1,0E0,0E0,0E0,0E0,0E0,0E0,0E0,0E0,0E0,0E0,0E0,0E0,0E0,0E0,0E0,0E0,0E0,0E0,0E0,0E0,0E0,0E0,0E0,0E0,0E0,0E0,0E0,0E0,0E0,0E0,0E0,0E0,0E0,0E0,0E0,0E0,0E0,0E0,0E0,0E0,0E0,0E0,0E0,0E0],"parents":[2147483647,0,0,1,1,2,2,3,3,4,4,5,5,6,6,7,7,8,8,9,9,10,10,11,11,12,12,13,13,14,14,15,15,16,16,17,17,19,19,20,20,21,21,22,22,23,23,24,24,25,25,26,26,27,27,28,28,29,29,30,30,31,31,32,32,34,34,36,36,38,38,39,39,40,40,43,43,45,45,46,46,47,47,49,49,50,50,51,51,53,53,54,54,55,55,56,56,57,57,58,58,59,59,60,60],"right_children":[2,4,6,8,10,12,14,16,18,20,22,24,26,28,30,32,34,36,-1,38,40,42,44,46,48,50,52,54,56,58,60,62,64,-1,66,-1,68,-1,70,72,74,-1,-1,76,-1,78,80,82,-1,84,86,88,-1,90,92,94,96,98,100,102,104,-1,-1,-1,-1,-1,-1,-1,-1,-1,-1,-1,-1,-1,-1,-1,-1,-1,-1,-1,-1,-1,-1,-1,-1,-1,-1,-1,-1,-1,-1,-1,-1,-1,-1,-1,-1,-1,-1,-1,-1,-1,-1,-1,-1],"split_conditions":[1E0,8.95E2,2E0,8.75E2,1.5E1,5E0,3E0,8.52E2,1.4E1,9.16E2,4.47E3,2.2471988E2,2.5E1,4E0,1.4214E4,9E0,1.9275745E2,1.5036E4,1.6967328E-1,3E0,9.37E2,4E0,9.19E2,2.2075168E2,5E0,9.27E2,1.8E1,1.4335E4,8.75E2,1.3608E4,4E0,6E0,2.2394604E2,-1.079507E-1,3.2983E4,-4.1602874E-1,2.4078E4,-2.819838E-2,1.3E1,1.3051E4,9.76E2,-1.7788889E-1,9.052698E-2,3E0,2.8643468E-1,3E0,3E0,2.4E1,1.108866E-1,2.4385E4,1.011E3,4.53E2,-2.2299238E-1,1.426E3,1.8302E4,3E0,1.276E3,4E0,1.198E3,2.068E4,1.4335E4,1.2631064E-4,1.065081E-1,-1.3084547E-1,-4.1138018E-3,3.3933485E-1,7.645854E-2,1.3795443E-1,-3.541467E-1,3.6280987E-1,-2.5468348E-2,-3.777688E-1,4.167833E-2,2.704648E-1,1.8864412E-2,2.1526206E-1,-1.2572095E-1,-3.1121635E-1,-8.243098E-2,-3.676081E-2,2.831608E-1,-2.9695618E-1,4.60947E-3,3.0108212E-2,-7.500155E-2,-2.034804E-1,-1.5340044E-2,9.209854E-3,3.787071E-1,5.5957925E-2,4.1865396E-1,-6.6542104E-2,3.198466E-1,-7.769631E-3,1.4000054E-1,1.01761185E-1,-1.689915E-1,-6.721179E-2,2.1032201E-2,-5.322844E-2,-3.073398E-1,1.7693456E-1,-1.5890116E-2,4.7972423E-1,-3.6843374E-2],"split_indices":[7,8,7,8,9,0,7,8,0,8,3,12,0,0,3,4,12,3,0,0,8,0,8,12,4,8,9,3,8,3,7,4,12,0,3,0,3,0,0,3,8,0,0,2,0,9,5,9,0,3,8,8,0,3,3,5,6,7,6,3,3,0,0,0,0,0,0,0,0,0,0,0,0,0,0,0,0,0,0,0,0,0,0,0,0,0,0,0,0,0,0,0,0,0,0,0,0,0,0,0,0,0,0,0,0],"split_type":[0,0,0,0,0,0,0,0,0,0,0,0,0,0,0,0,0,0,0,0,0,0,0,0,0,0,0,0,0,0,0,0,0,0,0,0,0,0,0,0,0,0,0,0,0,0,0,0,0,0,0,0,0,0,0,0,0,0,0,0,0,0,0,0,0,0,0,0,0,0,0,0,0,0,0,0,0,0,0,0,0,0,0,0,0,0,0,0,0,0,0,0,0,0,0,0,0,0,0,0,0,0,0,0,0],"sum_hessian":[2.0167194E3,3.9017728E2,1.626542E3,3.3006223E2,6.0115074E1,4.017155E2,1.2248265E3,3.2054004E2,9.522187E0,3.9398262E1,2.0716814E1,1.6644699E2,2.3526852E2,2.4539574E2,9.794308E2,3.1057953E2,9.960492E0,8.316793E0,1.2053938E0,6.6682925E0,3.272997E1,2.3434312E0,1.8373383E1,1.4979259E2,1.6654402E1,2.2761069E2,7.657829E0,2.7416945E1,2.1797879E2,5.1345E2,4.6598074E2,2.4547054E2,6.510899E1,1.9301891E0,8.030303E0,3.119941E0,5.196852E0,1.1041222E0,5.5641704E0,6.54098E0,2.618899E1,1.0975741E0,1.2458571E0,4.4012914E0,1.3972092E1,1.3865384E2,1.1138754E1,1.5633587E1,1.0208154E0,1.834967E2,4.4113983E1,6.1428246E0,1.515004E0,1.5984144E1,1.14328E1,1.6638205E2,5.159675E1,4.9426843E2,1.9181578E1,1.9987819E2,2.6610257E2,2.00947E2,4.452354E1,3.0680344E1,3.4428646E1,6.806935E0,1.223368E0,2.573732E0,2.62312E0,4.4423833E0,1.1217873E0,2.7347496E0,3.8062303E0,5.748468E0,2.0440521E1,2.3705962E0,2.030695E0,3.3883355E0,1.352655E2,5.1228504E0,6.0159035E0,1.3381635E1,2.2519522E0,1.505097E2,3.2987E1,1.7532446E1,2.6581535E1,1.1008942E0,5.0419307E0,1.1986185E0,1.4785525E1,3.4012306E0,8.0315695E0,8.75006E1,7.888144E1,5.929867E0,4.566688E1,2.3233339E2,2.6193506E2,5.080436E0,1.4101141E1,1.0290257E2,9.6975624E1,2.4620306E0,2.6364053E2],"tree_param":{"num_deleted":"0","num_feature":"13","num_nodes":"105","size_leaf_vector":"1"}},{"base_weights":[-4.263202E-4,2.3681206E-1,-5.625561E-3,-6.657181E-2,2.8512812E-1,-1.5996468E-1,7.637997E-3,3.401174E-1,-2.4918495E-1,-1.8339527E-1,5.8814085E-1,9.9762775E-2,-2.021863E-2,-5.4163035E-2,3.3671692E-1,-5.122384E-2,